<?xml version="1.0"?>
<opencv_storage>
<stage14>
  <maxWeakCount>100</maxWeakCount>
  <stageThreshold>-2.9612357616424561e+00</stageThreshold>
  <weakClassifiers>
    <_>
      <internalNodes>
        0 -1 138856 1.7456835848861374e-05</internalNodes>
      <leafValues>
        -8.5910928249359131e-01 7.3894739151000977e-01</leafValues></_>
    <_>
      <internalNodes>
        0 -1 116134 -2.1155036520212889e-03</internalNodes>
      <leafValues>
        6.2177997827529907e-01 -7.2083151340484619e-01</leafValues></_>
    <_>
      <internalNodes>
        0 -1 71606 -5.2939885063096881e-04</internalNodes>
      <leafValues>
        7.1089041233062744e-01 -4.5378351211547852e-01</leafValues></_>
    <_>
      <internalNodes>
        0 -1 6953 -2.4632943677715957e-04</internalNodes>
      <leafValues>
        5.8396190404891968e-01 -4.2368662357330322e-01</leafValues></_>
    <_>
      <internalNodes>
        0 -1 144565 -4.7738263383507729e-03</internalNodes>
      <leafValues>
        7.9714280366897583e-01 -2.1265508234500885e-01</leafValues></_>
    <_>
      <internalNodes>
        0 -1 14854 -2.0925240218639374e-01</internalNodes>
      <leafValues>
        7.6343566179275513e-01 -1.5961499512195587e-01</leafValues></_>
    <_>
      <internalNodes>
        0 -1 60678 4.6083210036158562e-03</internalNodes>
      <leafValues>
        1.7871370911598206e-01 -9.1130208969116211e-01</leafValues></_>
    <_>
      <internalNodes>
        0 -1 52070 7.1820052107796073e-04</internalNodes>
      <leafValues>
        -2.4329468607902527e-01 7.2862148284912109e-01</leafValues></_>
    <_>
      <internalNodes>
        0 -1 25688 -3.3028603065758944e-03</internalNodes>
      <leafValues>
        7.3301684856414795e-01 -1.2387426942586899e-01</leafValues></_>
    <_>
      <internalNodes>
        0 -1 322 -2.8493278659880161e-03</internalNodes>
      <leafValues>
        -7.9963356256484985e-01 1.4691917598247528e-01</leafValues></_>
    <_>
      <internalNodes>
        0 -1 74914 -4.6123899519443512e-03</internalNodes>
      <leafValues>
        8.5679286718368530e-01 -1.4505074918270111e-01</leafValues></_>
    <_>
      <internalNodes>
        0 -1 18613 1.0417048633098602e-01</internalNodes>
      <leafValues>
        1.8635833263397217e-01 -6.9114363193511963e-01</leafValues></_>
    <_>
      <internalNodes>
        0 -1 57639 -3.5773708950728178e-03</internalNodes>
      <leafValues>
        7.2395777702331543e-01 -1.7686863243579865e-01</leafValues></_>
    <_>
      <internalNodes>
        0 -1 109239 2.5622185319662094e-02</internalNodes>
      <leafValues>
        -8.5429348051548004e-02 8.6533242464065552e-01</leafValues></_>
    <_>
      <internalNodes>
        0 -1 76861 -5.2496494026854634e-04</internalNodes>
      <leafValues>
        -4.1864490509033203e-01 2.2236083447933197e-01</leafValues></_>
    <_>
      <internalNodes>
        0 -1 112364 2.4350299499928951e-03</internalNodes>
      <leafValues>
        -1.2038744240999222e-01 7.0492774248123169e-01</leafValues></_>
    <_>
      <internalNodes>
        0 -1 61123 -2.5951454043388367e-01</internalNodes>
      <leafValues>
        -9.5826238393783569e-01 8.9312553405761719e-02</leafValues></_>
    <_>
      <internalNodes>
        0 -1 107506 -1.1300877667963505e-03</internalNodes>
      <leafValues>
        6.5008556842803955e-01 -1.1127971112728119e-01</leafValues></_>
    <_>
      <internalNodes>
        0 -1 7 1.5746787539683282e-04</internalNodes>
      <leafValues>
        1.0465867072343826e-01 -7.1572524309158325e-01</leafValues></_>
    <_>
      <internalNodes>
        0 -1 21313 -2.1222545765340328e-03</internalNodes>
      <leafValues>
        5.5687880516052246e-01 -1.2286339700222015e-01</leafValues></_>
    <_>
      <internalNodes>
        0 -1 11555 5.5834623053669930e-03</internalNodes>
      <leafValues>
        1.0245734453201294e-01 -6.5323692560195923e-01</leafValues></_>
    <_>
      <internalNodes>
        0 -1 132456 -2.3386631160974503e-02</internalNodes>
      <leafValues>
        9.5468264818191528e-01 -7.1574054658412933e-02</leafValues></_>
    <_>
      <internalNodes>
        0 -1 70707 1.8557073781266809e-03</internalNodes>
      <leafValues>
        9.7423590719699860e-02 -6.9758623838424683e-01</leafValues></_>
    <_>
      <internalNodes>
        0 -1 66785 5.1708426326513290e-04</internalNodes>
      <leafValues>
        -1.0295933485031128e-01 6.1477535963058472e-01</leafValues></_>
    <_>
      <internalNodes>
        0 -1 25968 2.1458676201291382e-04</internalNodes>
      <leafValues>
        7.6882883906364441e-02 -8.8293749094009399e-01</leafValues></_>
    <_>
      <internalNodes>
        0 -1 118675 -5.8852002257481217e-04</internalNodes>
      <leafValues>
        6.4610171318054199e-01 -9.1621391475200653e-02</leafValues></_>
    <_>
      <internalNodes>
        0 -1 95643 5.6844291975721717e-04</internalNodes>
      <leafValues>
        8.9895121753215790e-02 -5.7392799854278564e-01</leafValues></_>
    <_>
      <internalNodes>
        0 -1 123120 1.2121384497731924e-03</internalNodes>
      <leafValues>
        -7.6287761330604553e-02 7.1724122762680054e-01</leafValues></_>
    <_>
      <internalNodes>
        0 -1 25823 8.0516081652604043e-05</internalNodes>
      <leafValues>
        7.4370019137859344e-02 -6.9807636737823486e-01</leafValues></_>
    <_>
      <internalNodes>
        0 -1 59834 -1.1842441745102406e-03</internalNodes>
      <leafValues>
        6.9478911161422729e-01 -6.4487546682357788e-02</leafValues></_>
    <_>
      <internalNodes>
        0 -1 157598 1.3994328037369996e-04</internalNodes>
      <leafValues>
        5.6619163602590561e-02 -7.4535298347473145e-01</leafValues></_>
    <_>
      <internalNodes>
        0 -1 146632 -1.1920088436454535e-03</internalNodes>
      <leafValues>
        9.4444179534912109e-01 -4.1288413107395172e-02</leafValues></_>
    <_>
      <internalNodes>
        0 -1 134360 3.2549167517572641e-03</internalNodes>
      <leafValues>
        3.9746657013893127e-02 -1.</leafValues></_>
    <_>
      <internalNodes>
        0 -1 44340 1.4871271559968591e-04</internalNodes>
      <leafValues>
        -4.8303246498107910e-02 7.8209376335144043e-01</leafValues></_>
    <_>
      <internalNodes>
        0 -1 2161 -1.1776820610975847e-04</internalNodes>
      <leafValues>
        -7.8842359781265259e-01 4.6680536121129990e-02</leafValues></_>
    <_>
      <internalNodes>
        0 -1 142706 -2.2711706697009504e-04</internalNodes>
      <leafValues>
        7.1060645580291748e-01 -4.1774015873670578e-02</leafValues></_>
    <_>
      <internalNodes>
        0 -1 49929 -1.1825600266456604e-01</internalNodes>
      <leafValues>
        -1. 2.5269551202654839e-02</leafValues></_>
    <_>
      <internalNodes>
        0 -1 808 -4.7512981109321117e-03</internalNodes>
      <leafValues>
        -8.5294020175933838e-01 4.1875544935464859e-02</leafValues></_>
    <_>
      <internalNodes>
        0 -1 24513 -1.7340615158900619e-04</internalNodes>
      <leafValues>
        7.7854675054550171e-01 -5.1270507276058197e-02</leafValues></_>
    <_>
      <internalNodes>
        0 -1 128685 2.8288697823882103e-02</internalNodes>
      <leafValues>
        2.0687498152256012e-02 -1.</leafValues></_>
    <_>
      <internalNodes>
        0 -1 137750 -7.4106338433921337e-04</internalNodes>
      <leafValues>
        7.3072326183319092e-01 -3.5062577575445175e-02</leafValues></_>
    <_>
      <internalNodes>
        0 -1 145837 -2.1764144548797049e-05</internalNodes>
      <leafValues>
        -8.3633464574813843e-01 2.5358609855175018e-02</leafValues></_>
    <_>
      <internalNodes>
        0 -1 96089 -1.3729062629863620e-03</internalNodes>
      <leafValues>
        7.9387521743774414e-01 -1.4393915422260761e-02</leafValues></_>
    <_>
      <internalNodes>
        0 -1 6953 1.6980082727968693e-04</internalNodes>
      <leafValues>
        1.9777292385697365e-02 -1.</leafValues></_>
    <_>
      <internalNodes>
        0 -1 120583 1.7201682203449309e-04</internalNodes>
      <leafValues>
        -1.0666654445230961e-02 8.8404703140258789e-01</leafValues></_>
    <_>
      <internalNodes>
        0 -1 145054 1.2884054740425199e-04</internalNodes>
      <leafValues>
        1.2739700265228748e-02 -8.8836753368377686e-01</leafValues></_>
    <_>
      <internalNodes>
        0 -1 141397 1.3588920701295137e-03</internalNodes>
      <leafValues>
        -1.2638812884688377e-02 8.9937585592269897e-01</leafValues></_>
    <_>
      <internalNodes>
        0 -1 145698 6.9677247665822506e-04</internalNodes>
      <leafValues>
        5.0961528904736042e-03 -1.</leafValues></_>
    <_>
      <internalNodes>
        0 -1 13173 1.3054287410341203e-04</internalNodes>
      <leafValues>
        -1.0251765139400959e-02 8.5584759712219238e-01</leafValues></_>
    <_>
      <internalNodes>
        0 -1 123538 7.7508180402219296e-04</internalNodes>
      <leafValues>
        6.9936448708176613e-03 -1.</leafValues></_>
    <_>
      <internalNodes>
        0 -1 121550 2.6016733609139919e-03</internalNodes>
      <leafValues>
        -6.4846728928387165e-03 8.7936562299728394e-01</leafValues></_>
    <_>
      <internalNodes>
        0 -1 104 -1.8123399058822542e-04</internalNodes>
      <leafValues>
        -1. 7.6377233490347862e-03</leafValues></_>
    <_>
      <internalNodes>
        0 -1 104 -1.7730630934238434e-03</internalNodes>
      <leafValues>
        9.1259509325027466e-01 -4.3457597494125366e-03</leafValues></_>
    <_>
      <internalNodes>
        0 -1 112892 -7.9578830627724528e-04</internalNodes>
      <leafValues>
        -1. 1.0311544872820377e-02</leafValues></_>
    <_>
      <internalNodes>
        0 -1 112892 -5.3351838141679764e-04</internalNodes>
      <leafValues>
        9.6205961704254150e-01 -8.3560897037386894e-03</leafValues></_>
    <_>
      <internalNodes>
        0 -1 68535 -1.1747531243599951e-04</internalNodes>
      <leafValues>
        -1. 9.2963678762316704e-03</leafValues></_>
    <_>
      <internalNodes>
        0 -1 105009 -2.4892875808291137e-04</internalNodes>
      <leafValues>
        9.6540182828903198e-01 -9.6740210428833961e-03</leafValues></_>
    <_>
      <internalNodes>
        0 -1 63931 -1.4538243412971497e-01</internalNodes>
      <leafValues>
        1. -1.0279467329382896e-02</leafValues></_>
    <_>
      <internalNodes>
        0 -1 34667 -1.2218402698636055e-03</internalNodes>
      <leafValues>
        -1. 1.4394800178706646e-02</leafValues></_>
    <_>
      <internalNodes>
        0 -1 10314 -2.2954873275011778e-03</internalNodes>
      <leafValues>
        9.6550017595291138e-01 -3.0624538194388151e-03</leafValues></_>
    <_>
      <internalNodes>
        0 -1 82708 3.4875059500336647e-03</internalNodes>
      <leafValues>
        8.4441801300272346e-04 -1.</leafValues></_>
    <_>
      <internalNodes>
        0 -1 72889 2.4624138604849577e-03</internalNodes>
      <leafValues>
        -1.5552099794149399e-03 9.7589302062988281e-01</leafValues></_>
    <_>
      <internalNodes>
        0 -1 125301 6.2037364114075899e-04</internalNodes>
      <leafValues>
        1.5102643519639969e-03 -1.</leafValues></_>
    <_>
      <internalNodes>
        0 -1 125301 7.2723749326542020e-04</internalNodes>
      <leafValues>
        -2.5067338719964027e-03 9.7807276248931885e-01</leafValues></_>
    <_>
      <internalNodes>
        0 -1 142300 9.9734243121929467e-05</internalNodes>
      <leafValues>
        2.6921727694571018e-03 -1.</leafValues></_>
    <_>
      <internalNodes>
        0 -1 142300 1.4374249440152198e-04</internalNodes>
      <leafValues>
        -3.4435018897056580e-03 9.7765260934829712e-01</leafValues></_>
    <_>
      <internalNodes>
        0 -1 152063 1.8919025023933500e-04</internalNodes>
      <leafValues>
        4.0218192152678967e-03 -1.</leafValues></_>
    <_>
      <internalNodes>
        0 -1 152063 2.2970027930568904e-04</internalNodes>
      <leafValues>
        -3.7501279730349779e-03 9.7190248966217041e-01</leafValues></_>
    <_>
      <internalNodes>
        0 -1 146726 2.7720356592908502e-04</internalNodes>
      <leafValues>
        5.8482945896685123e-03 -1.</leafValues></_>
    <_>
      <internalNodes>
        0 -1 146726 2.2480270126834512e-04</internalNodes>
      <leafValues>
        -6.5901810303330421e-03 9.7614383697509766e-01</leafValues></_>
    <_>
      <internalNodes>
        0 -1 137267 8.5475307423621416e-04</internalNodes>
      <leafValues>
        6.1800982803106308e-03 -1.</leafValues></_>
    <_>
      <internalNodes>
        0 -1 137267 9.0608274331316352e-04</internalNodes>
      <leafValues>
        -5.6466325186192989e-03 9.8042148351669312e-01</leafValues></_>
    <_>
      <internalNodes>
        0 -1 94574 3.3398974686861038e-02</internalNodes>
      <leafValues>
        4.9570356495678425e-03 -1.</leafValues></_>
    <_>
      <internalNodes>
        0 -1 95014 6.1749946326017380e-03</internalNodes>
      <leafValues>
        -5.6094285100698471e-03 9.7033536434173584e-01</leafValues></_>
    <_>
      <internalNodes>
        0 -1 7030 -4.3454687693156302e-04</internalNodes>
      <leafValues>
        -1. 2.5686041917651892e-03</leafValues></_>
    <_>
      <internalNodes>
        0 -1 7030 -2.0454837940633297e-03</internalNodes>
      <leafValues>
        9.7778904438018799e-01 5.6490070399206616e-09</leafValues></_>
    <_>
      <internalNodes>
        0 -1 101584 -4.2400853999424726e-05</internalNodes>
      <leafValues>
        -1. 1.1987623292952776e-03</leafValues></_>
    <_>
      <internalNodes>
        0 -1 3055 -6.8800137378275394e-03</internalNodes>
      <leafValues>
        9.8015725612640381e-01 -9.6406787633895874e-04</leafValues></_>
    <_>
      <internalNodes>
        0 -1 51891 -7.7773574739694595e-03</internalNodes>
      <leafValues>
        -1. 4.4796736910939217e-03</leafValues></_>
    <_>
      <internalNodes>
        0 -1 3055 -6.8800137378275394e-03</internalNodes>
      <leafValues>
        9.7980219125747681e-01 -3.7963595241308212e-03</leafValues></_>
    <_>
      <internalNodes>
        0 -1 95948 8.0605503171682358e-04</internalNodes>
      <leafValues>
        2.1670039277523756e-03 -1.</leafValues></_>
    <_>
      <internalNodes>
        0 -1 10966 1.0057159670395777e-04</internalNodes>
      <leafValues>
        -2.5310886558145285e-03 9.7900032997131348e-01</leafValues></_>
    <_>
      <internalNodes>
        0 -1 122654 3.9445181027986109e-04</internalNodes>
      <leafValues>
        3.6072062794119120e-03 -1.</leafValues></_>
    <_>
      <internalNodes>
        0 -1 121621 4.7484827227890491e-03</internalNodes>
      <leafValues>
        -4.8435288481414318e-03 1.</leafValues></_>
    <_>
      <internalNodes>
        0 -1 31414 -1.3823526678606868e-03</internalNodes>
      <leafValues>
        -1. 5.0899186171591282e-03</leafValues></_>
    <_>
      <internalNodes>
        0 -1 6199 -1.4509642496705055e-03</internalNodes>
      <leafValues>
        1. -4.6469839289784431e-03</leafValues></_>
    <_>
      <internalNodes>
        0 -1 545 -6.1092013493180275e-03</internalNodes>
      <leafValues>
        -1. 2.6195927057415247e-03</leafValues></_>
    <_>
      <internalNodes>
        0 -1 543 -6.0530030168592930e-03</internalNodes>
      <leafValues>
        1. -1.9144818652421236e-03</leafValues></_>
    <_>
      <internalNodes>
        0 -1 114692 4.6763516729697585e-04</internalNodes>
      <leafValues>
        2.0316117443144321e-03 -1.</leafValues></_>
    <_>
      <internalNodes>
        0 -1 40131 -1.2509539956226945e-03</internalNodes>
      <leafValues>
        1. -1.9144850084558129e-03</leafValues></_>
    <_>
      <internalNodes>
        0 -1 452 -4.5340595534071326e-04</internalNodes>
      <leafValues>
        -1. 3.3521681325510144e-04</leafValues></_>
    <_>
      <internalNodes>
        0 -1 444 -3.7698703818023205e-04</internalNodes>
      <leafValues>
        1. 1.2571436079633624e-11</leafValues></_>
    <_>
      <internalNodes>
        0 -1 440 -4.0302751585841179e-04</internalNodes>
      <leafValues>
        -1. 9.6406840020790696e-04</leafValues></_>
    <_>
      <internalNodes>
        0 -1 440 -9.1397482901811600e-04</internalNodes>
      <leafValues>
        1. -9.6406810916960239e-04</leafValues></_>
    <_>
      <internalNodes>
        0 -1 440 -2.6905462145805359e-03</internalNodes>
      <leafValues>
        -1. 1.9135155016556382e-03</leafValues></_>
    <_>
      <internalNodes>
        0 -1 440 -1.4687345828860998e-03</internalNodes>
      <leafValues>
        1. -1.9135135225951672e-03</leafValues></_>
    <_>
      <internalNodes>
        0 -1 440 -2.6905462145805359e-03</internalNodes>
      <leafValues>
        -1. 9.6406607190147042e-04</leafValues></_>
    <_>
      <internalNodes>
        0 -1 440 -1.4687345828860998e-03</internalNodes>
      <leafValues>
        1. -9.6406810916960239e-04</leafValues></_>
    <_>
      <internalNodes>
        0 -1 440 -2.6905462145805359e-03</internalNodes>
      <leafValues>
        -1. 9.6406810916960239e-04</leafValues></_>
    <_>
      <internalNodes>
        0 -1 440 -1.4687345828860998e-03</internalNodes>
      <leafValues>
        1. -9.6406810916960239e-04</leafValues></_></weakClassifiers></stage14>
</opencv_storage>
