<?xml version="1.0"?>
<opencv_storage>
<stage2>
  <maxWeakCount>9</maxWeakCount>
  <stageThreshold>-1.1919035911560059e+00</stageThreshold>
  <weakClassifiers>
    <_>
      <internalNodes>
        0 -1 7657 -5.3652029484510422e-02</internalNodes>
      <leafValues>
        3.9555555582046509e-01 -7.0476192235946655e-01</leafValues></_>
    <_>
      <internalNodes>
        0 -1 128151 -2.0080678164958954e-02</internalNodes>
      <leafValues>
        4.7792369127273560e-01 -4.0679118037223816e-01</leafValues></_>
    <_>
      <internalNodes>
        0 -1 98894 -1.9741831347346306e-03</internalNodes>
      <leafValues>
        -6.5981835126876831e-01 2.3485600948333740e-01</leafValues></_>
    <_>
      <internalNodes>
        0 -1 12812 -7.1213638875633478e-04</internalNodes>
      <leafValues>
        -8.5527694225311279e-01 1.3296958804130554e-01</leafValues></_>
    <_>
      <internalNodes>
        0 -1 25598 2.2372666746377945e-02</internalNodes>
      <leafValues>
        -2.5462526082992554e-01 4.7648361325263977e-01</leafValues></_>
    <_>
      <internalNodes>
        0 -1 13552 -1.5676695329602808e-04</internalNodes>
      <leafValues>
        -6.1662769317626953e-01 2.2882139682769775e-01</leafValues></_>
    <_>
      <internalNodes>
        0 -1 37962 2.8379977447912097e-04</internalNodes>
      <leafValues>
        1.4429470896720886e-01 -7.3482775688171387e-01</leafValues></_>
    <_>
      <internalNodes>
        0 -1 63886 -1.5619741380214691e-01</internalNodes>
      <leafValues>
        7.3926484584808350e-01 -1.9680860638618469e-01</leafValues></_>
    <_>
      <internalNodes>
        0 -1 90394 1.2866720557212830e-02</internalNodes>
      <leafValues>
        -2.4555864930152893e-01 6.5658771991729736e-01</leafValues></_></weakClassifiers></stage2>
</opencv_storage>
