<?xml version="1.0"?>
<opencv_storage>
<stage7>
  <maxWeakCount>100</maxWeakCount>
  <stageThreshold>-2.9580831527709961e+00</stageThreshold>
  <weakClassifiers>
    <_>
      <internalNodes>
        0 -1 138857 1.1655910202534869e-04</internalNodes>
      <leafValues>
        -8.5853660106658936e-01 7.2083336114883423e-01</leafValues></_>
    <_>
      <internalNodes>
        0 -1 84032 -6.4073254179675132e-05</internalNodes>
      <leafValues>
        5.5313569307327271e-01 -7.0859974622726440e-01</leafValues></_>
    <_>
      <internalNodes>
        0 -1 148414 -2.0659789443016052e-03</internalNodes>
      <leafValues>
        8.4167361259460449e-01 -3.8772055506706238e-01</leafValues></_>
    <_>
      <internalNodes>
        0 -1 68845 -3.7433095712913200e-05</internalNodes>
      <leafValues>
        5.7683980464935303e-01 -4.0686550736427307e-01</leafValues></_>
    <_>
      <internalNodes>
        0 -1 36159 2.3452101740986109e-03</internalNodes>
      <leafValues>
        -2.2295171022415161e-01 8.1229192018508911e-01</leafValues></_>
    <_>
      <internalNodes>
        0 -1 118833 -5.5446759797632694e-03</internalNodes>
      <leafValues>
        8.5913646221160889e-01 -1.5643882751464844e-01</leafValues></_>
    <_>
      <internalNodes>
        0 -1 98980 -3.2928851433098316e-03</internalNodes>
      <leafValues>
        7.5292897224426270e-01 -1.6010636091232300e-01</leafValues></_>
    <_>
      <internalNodes>
        0 -1 39559 4.5884950086474419e-03</internalNodes>
      <leafValues>
        -1.0658483952283859e-01 9.1672164201736450e-01</leafValues></_>
    <_>
      <internalNodes>
        0 -1 71118 6.9985976442694664e-03</internalNodes>
      <leafValues>
        1.8170477449893951e-01 -8.2037311792373657e-01</leafValues></_>
    <_>
      <internalNodes>
        0 -1 68390 -1.8013592343777418e-03</internalNodes>
      <leafValues>
        6.0185712575912476e-01 -2.0340263843536377e-01</leafValues></_>
    <_>
      <internalNodes>
        0 -1 12724 -4.8278912901878357e-02</internalNodes>
      <leafValues>
        -6.6109549999237061e-01 1.5832757949829102e-01</leafValues></_>
    <_>
      <internalNodes>
        0 -1 76849 3.7918910384178162e-03</internalNodes>
      <leafValues>
        -1.2890365719795227e-01 8.8782626390457153e-01</leafValues></_>
    <_>
      <internalNodes>
        0 -1 77352 -3.7640696391463280e-03</internalNodes>
      <leafValues>
        6.1845505237579346e-01 -1.1866857111454010e-01</leafValues></_>
    <_>
      <internalNodes>
        0 -1 12580 -3.0636304290965199e-04</internalNodes>
      <leafValues>
        -6.0607290267944336e-01 1.8211039900779724e-01</leafValues></_>
    <_>
      <internalNodes>
        0 -1 13377 5.0503397360444069e-03</internalNodes>
      <leafValues>
        7.4148111045360565e-02 -9.2007392644882202e-01</leafValues></_>
    <_>
      <internalNodes>
        0 -1 150349 2.6891021989285946e-03</internalNodes>
      <leafValues>
        -1.7014597356319427e-01 6.0727423429489136e-01</leafValues></_>
    <_>
      <internalNodes>
        0 -1 35905 1.9677062518894672e-03</internalNodes>
      <leafValues>
        1.2661552429199219e-01 -6.9201076030731201e-01</leafValues></_>
    <_>
      <internalNodes>
        0 -1 9504 -4.1455533355474472e-03</internalNodes>
      <leafValues>
        7.3796975612640381e-01 -1.2627288699150085e-01</leafValues></_>
    <_>
      <internalNodes>
        0 -1 162309 -3.5149250179529190e-03</internalNodes>
      <leafValues>
        -7.7106249332427979e-01 1.0054031759500504e-01</leafValues></_>
    <_>
      <internalNodes>
        0 -1 132626 -7.0402177516371012e-04</internalNodes>
      <leafValues>
        6.0058861970901489e-01 -1.2391936033964157e-01</leafValues></_>
    <_>
      <internalNodes>
        0 -1 87 1.9439258903730661e-04</internalNodes>
      <leafValues>
        1.1971759051084518e-01 -6.1268132925033569e-01</leafValues></_>
    <_>
      <internalNodes>
        0 -1 26590 -1.9988076761364937e-02</internalNodes>
      <leafValues>
        8.3788722753524780e-01 -8.9494816958904266e-02</leafValues></_>
    <_>
      <internalNodes>
        0 -1 161604 2.3285745555767789e-05</internalNodes>
      <leafValues>
        1.1390110105276108e-01 -5.1013118028640747e-01</leafValues></_>
    <_>
      <internalNodes>
        0 -1 96090 -5.0734716933220625e-04</internalNodes>
      <leafValues>
        6.9518768787384033e-01 -9.4942688941955566e-02</leafValues></_>
    <_>
      <internalNodes>
        0 -1 80312 -3.4195836633443832e-02</internalNodes>
      <leafValues>
        7.1219271421432495e-01 -6.1666458845138550e-02</leafValues></_>
    <_>
      <internalNodes>
        0 -1 11302 2.9973534401506186e-04</internalNodes>
      <leafValues>
        1.1996983736753464e-01 -5.4752510786056519e-01</leafValues></_>
    <_>
      <internalNodes>
        0 -1 43866 -1.0412714909762144e-03</internalNodes>
      <leafValues>
        7.3403042554855347e-01 -6.2486179172992706e-02</leafValues></_>
    <_>
      <internalNodes>
        0 -1 119728 -9.1481034178286791e-04</internalNodes>
      <leafValues>
        -5.7308030128479004e-01 9.0529941022396088e-02</leafValues></_>
    <_>
      <internalNodes>
        0 -1 31965 -9.1650690883398056e-03</internalNodes>
      <leafValues>
        6.2125378847122192e-01 -7.0630714297294617e-02</leafValues></_>
    <_>
      <internalNodes>
        0 -1 97940 -1.6176551580429077e-02</internalNodes>
      <leafValues>
        -1. 4.5595820993185043e-02</leafValues></_>
    <_>
      <internalNodes>
        0 -1 131517 -1.0549331782385707e-03</internalNodes>
      <leafValues>
        8.0449038743972778e-01 -5.5691782385110855e-02</leafValues></_>
    <_>
      <internalNodes>
        0 -1 98642 -5.7271332480013371e-04</internalNodes>
      <leafValues>
        -8.3341300487518311e-01 6.2053050845861435e-02</leafValues></_>
    <_>
      <internalNodes>
        0 -1 7556 3.3992130309343338e-02</internalNodes>
      <leafValues>
        -3.8046598434448242e-02 8.1860119104385376e-01</leafValues></_>
    <_>
      <internalNodes>
        0 -1 77388 -1.1348073370754719e-02</internalNodes>
      <leafValues>
        -8.9052486419677734e-01 4.2223002761602402e-02</leafValues></_>
    <_>
      <internalNodes>
        0 -1 43400 -4.5004925131797791e-01</internalNodes>
      <leafValues>
        8.8997358083724976e-01 -3.2492142170667648e-02</leafValues></_>
    <_>
      <internalNodes>
        0 -1 159011 -1.1586879845708609e-03</internalNodes>
      <leafValues>
        7.6646095514297485e-01 -3.5278752446174622e-02</leafValues></_>
    <_>
      <internalNodes>
        0 -1 80782 1.2711089766526129e-05</internalNodes>
      <leafValues>
        5.2284196019172668e-02 -7.9317373037338257e-01</leafValues></_>
    <_>
      <internalNodes>
        0 -1 161734 2.0975261577405035e-04</internalNodes>
      <leafValues>
        -2.6756290346384048e-02 6.8719410896301270e-01</leafValues></_>
    <_>
      <internalNodes>
        0 -1 10021 8.9705543359741569e-05</internalNodes>
      <leafValues>
        3.3050835132598877e-02 -7.0890998840332031e-01</leafValues></_>
    <_>
      <internalNodes>
        0 -1 103653 -1.6206738655455410e-04</internalNodes>
      <leafValues>
        6.4559710025787354e-01 -3.4062329679727554e-02</leafValues></_>
    <_>
      <internalNodes>
        0 -1 161195 -2.3459186195395887e-04</internalNodes>
      <leafValues>
        -9.3204683065414429e-01 2.1373162046074867e-02</leafValues></_>
    <_>
      <internalNodes>
        0 -1 75762 1.8484303727746010e-03</internalNodes>
      <leafValues>
        -2.1636202931404114e-02 7.5516277551651001e-01</leafValues></_>
    <_>
      <internalNodes>
        0 -1 135072 5.2414645324461162e-05</internalNodes>
      <leafValues>
        2.5430159643292427e-02 -8.0720084905624390e-01</leafValues></_>
    <_>
      <internalNodes>
        0 -1 142858 1.1174788232892752e-03</internalNodes>
      <leafValues>
        -1.0819823481142521e-02 7.5769448280334473e-01</leafValues></_>
    <_>
      <internalNodes>
        0 -1 139701 2.8039298485964537e-03</internalNodes>
      <leafValues>
        1.1294845491647720e-02 -9.3112504482269287e-01</leafValues></_>
    <_>
      <internalNodes>
        0 -1 140406 9.6305622719228268e-04</internalNodes>
      <leafValues>
        -1.2281541712582111e-02 8.2408356666564941e-01</leafValues></_>
    <_>
      <internalNodes>
        0 -1 121912 -2.2250306792557240e-03</internalNodes>
      <leafValues>
        -8.7861245870590210e-01 1.1324754916131496e-02</leafValues></_>
    <_>
      <internalNodes>
        0 -1 108513 -3.1032783444970846e-03</internalNodes>
      <leafValues>
        8.1247133016586304e-01 -1.0597005486488342e-02</leafValues></_>
    <_>
      <internalNodes>
        0 -1 36421 7.9079449642449617e-04</internalNodes>
      <leafValues>
        6.6756485030055046e-03 -9.2442107200622559e-01</leafValues></_>
    <_>
      <internalNodes>
        0 -1 47589 1.9831596873700619e-03</internalNodes>
      <leafValues>
        -3.8353784475475550e-03 8.7103354930877686e-01</leafValues></_>
    <_>
      <internalNodes>
        0 -1 142920 3.5450260620564222e-03</internalNodes>
      <leafValues>
        7.5198491103947163e-03 -1.</leafValues></_>
    <_>
      <internalNodes>
        0 -1 147058 3.8846151437610388e-04</internalNodes>
      <leafValues>
        -6.9360313937067986e-03 9.0657538175582886e-01</leafValues></_>
    <_>
      <internalNodes>
        0 -1 30941 -4.5171957463026047e-02</internalNodes>
      <leafValues>
        -1. 9.4429161399602890e-03</leafValues></_>
    <_>
      <internalNodes>
        0 -1 34758 -3.0541128944605589e-04</internalNodes>
      <leafValues>
        8.5102629661560059e-01 -1.2234532274305820e-02</leafValues></_>
    <_>
      <internalNodes>
        0 -1 12960 1.3405436184257269e-03</internalNodes>
      <leafValues>
        6.7284572869539261e-03 -1.</leafValues></_>
    <_>
      <internalNodes>
        0 -1 25197 1.7255080165341496e-03</internalNodes>
      <leafValues>
        -7.7802352607250214e-03 9.2322486639022827e-01</leafValues></_>
    <_>
      <internalNodes>
        0 -1 8014 1.4537501556333154e-04</internalNodes>
      <leafValues>
        9.6620796248316765e-03 -1.</leafValues></_>
    <_>
      <internalNodes>
        0 -1 10530 1.7369357010466047e-05</internalNodes>
      <leafValues>
        -7.4364165775477886e-03 9.1725242137908936e-01</leafValues></_>
    <_>
      <internalNodes>
        0 -1 154322 4.8998273996403441e-05</internalNodes>
      <leafValues>
        9.2968018725514412e-03 -9.0533924102783203e-01</leafValues></_>
    <_>
      <internalNodes>
        0 -1 13915 -4.0820630965754390e-04</internalNodes>
      <leafValues>
        8.6312365531921387e-01 -7.0274239405989647e-03</leafValues></_>
    <_>
      <internalNodes>
        0 -1 124620 -1.0704441956477240e-04</internalNodes>
      <leafValues>
        -1. 1.2438632547855377e-03</leafValues></_>
    <_>
      <internalNodes>
        0 -1 54855 -1.2332242913544178e-03</internalNodes>
      <leafValues>
        9.7370910644531250e-01 -9.9821132607758045e-04</leafValues></_>
    <_>
      <internalNodes>
        0 -1 84540 -1.9572686869651079e-03</internalNodes>
      <leafValues>
        -1. 3.8904517423361540e-03</leafValues></_>
    <_>
      <internalNodes>
        0 -1 121549 -5.0582611002027988e-03</internalNodes>
      <leafValues>
        9.5009583234786987e-01 -2.0515390206128359e-03</leafValues></_>
    <_>
      <internalNodes>
        0 -1 62748 -6.5022278577089310e-03</internalNodes>
      <leafValues>
        -1. 1.2751682661473751e-03</leafValues></_>
    <_>
      <internalNodes>
        0 -1 52796 -3.2282681786455214e-04</internalNodes>
      <leafValues>
        9.5674717426300049e-01 -2.4405664298683405e-03</leafValues></_>
    <_>
      <internalNodes>
        0 -1 92461 -1.0873145423829556e-02</internalNodes>
      <leafValues>
        -1. 1.0986251290887594e-03</leafValues></_>
    <_>
      <internalNodes>
        0 -1 83453 -4.3258294463157654e-03</internalNodes>
      <leafValues>
        9.6863108873367310e-01 -2.2555794566869736e-03</leafValues></_>
    <_>
      <internalNodes>
        0 -1 64834 -2.2988587152212858e-03</internalNodes>
      <leafValues>
        -1. 2.1728388965129852e-03</leafValues></_>
    <_>
      <internalNodes>
        0 -1 75348 -4.6823686716379598e-05</internalNodes>
      <leafValues>
        1. 4.2326303082518280e-04</leafValues></_>
    <_>
      <internalNodes>
        0 -1 45562 -4.5516382670029998e-05</internalNodes>
      <leafValues>
        -1. 1.6395229613408446e-04</leafValues></_>
    <_>
      <internalNodes>
        0 -1 44990 -2.1539549925364554e-04</internalNodes>
      <leafValues>
        1. -1.4219817239791155e-03</leafValues></_>
    <_>
      <internalNodes>
        0 -1 23287 -8.9977795141749084e-05</internalNodes>
      <leafValues>
        -1. 3.7968491669744253e-03</leafValues></_>
    <_>
      <internalNodes>
        0 -1 7708 -4.7531275777146220e-04</internalNodes>
      <leafValues>
        1. -3.8770323153585196e-03</leafValues></_>
    <_>
      <internalNodes>
        0 -1 6973 -5.2046682685613632e-04</internalNodes>
      <leafValues>
        -1. 1.9247812451794744e-03</leafValues></_>
    <_>
      <internalNodes>
        0 -1 4465 -8.9019164443016052e-03</internalNodes>
      <leafValues>
        1. -2.2511973511427641e-03</leafValues></_>
    <_>
      <internalNodes>
        0 -1 127406 7.3497409175615758e-05</internalNodes>
      <leafValues>
        2.2041765041649342e-03 -1.</leafValues></_>
    <_>
      <internalNodes>
        0 -1 66015 -2.9643144807778299e-04</internalNodes>
      <leafValues>
        1. -1.2512785615399480e-03</leafValues></_>
    <_>
      <internalNodes>
        0 -1 103920 -7.4619473889470100e-04</internalNodes>
      <leafValues>
        -1. 1.8876848043873906e-03</leafValues></_>
    <_>
      <internalNodes>
        0 -1 103115 -1.1606441810727119e-02</internalNodes>
      <leafValues>
        9.8736470937728882e-01 -3.4613385796546936e-03</leafValues></_>
    <_>
      <internalNodes>
        0 -1 90469 -3.3644144423305988e-03</internalNodes>
      <leafValues>
        -1. 1.8081258749589324e-03</leafValues></_>
    <_>
      <internalNodes>
        0 -1 61201 -5.9480159543454647e-03</internalNodes>
      <leafValues>
        1. -2.3447260900866240e-04</leafValues></_>
    <_>
      <internalNodes>
        0 -1 108883 -5.2184157539159060e-04</internalNodes>
      <leafValues>
        -1. 5.8670080034062266e-04</leafValues></_>
    <_>
      <internalNodes>
        0 -1 108883 -7.6002517016604543e-04</internalNodes>
      <leafValues>
        1. -5.8670068392530084e-04</leafValues></_>
    <_>
      <internalNodes>
        0 -1 108883 -5.2184157539159060e-04</internalNodes>
      <leafValues>
        -1. 5.8670068392530084e-04</leafValues></_>
    <_>
      <internalNodes>
        0 -1 108883 -7.6002517016604543e-04</internalNodes>
      <leafValues>
        1. -5.8670068392530084e-04</leafValues></_>
    <_>
      <internalNodes>
        0 -1 108883 -5.2184157539159060e-04</internalNodes>
      <leafValues>
        -1. 5.8670068392530084e-04</leafValues></_>
    <_>
      <internalNodes>
        0 -1 108883 -7.6002517016604543e-04</internalNodes>
      <leafValues>
        1. -5.8670068392530084e-04</leafValues></_>
    <_>
      <internalNodes>
        0 -1 108883 -5.2184157539159060e-04</internalNodes>
      <leafValues>
        -1. 5.8670068392530084e-04</leafValues></_>
    <_>
      <internalNodes>
        0 -1 108883 -7.6002517016604543e-04</internalNodes>
      <leafValues>
        1. -5.8670068392530084e-04</leafValues></_>
    <_>
      <internalNodes>
        0 -1 108883 -5.2184157539159060e-04</internalNodes>
      <leafValues>
        -1. 5.8670068392530084e-04</leafValues></_>
    <_>
      <internalNodes>
        0 -1 108883 -7.6002517016604543e-04</internalNodes>
      <leafValues>
        1. -5.8670068392530084e-04</leafValues></_>
    <_>
      <internalNodes>
        0 -1 108883 -5.2184157539159060e-04</internalNodes>
      <leafValues>
        -1. 5.8670068392530084e-04</leafValues></_>
    <_>
      <internalNodes>
        0 -1 108883 -7.6002517016604543e-04</internalNodes>
      <leafValues>
        1. -5.8670068392530084e-04</leafValues></_>
    <_>
      <internalNodes>
        0 -1 108883 -5.2184157539159060e-04</internalNodes>
      <leafValues>
        -1. 5.8670068392530084e-04</leafValues></_>
    <_>
      <internalNodes>
        0 -1 108883 -7.6002517016604543e-04</internalNodes>
      <leafValues>
        1. -5.8670068392530084e-04</leafValues></_>
    <_>
      <internalNodes>
        0 -1 108883 -5.2184157539159060e-04</internalNodes>
      <leafValues>
        -1. 5.8670068392530084e-04</leafValues></_>
    <_>
      <internalNodes>
        0 -1 108883 -7.6002517016604543e-04</internalNodes>
      <leafValues>
        1. -5.8670068392530084e-04</leafValues></_>
    <_>
      <internalNodes>
        0 -1 108883 -5.2184157539159060e-04</internalNodes>
      <leafValues>
        -1. 5.8670068392530084e-04</leafValues></_>
    <_>
      <internalNodes>
        0 -1 108883 -7.6002517016604543e-04</internalNodes>
      <leafValues>
        1. -5.8670068392530084e-04</leafValues></_></weakClassifiers></stage7>
</opencv_storage>
