<?xml version="1.0"?>
<opencv_storage>
<stage13>
  <maxWeakCount>100</maxWeakCount>
  <stageThreshold>-2.9839272499084473e+00</stageThreshold>
  <weakClassifiers>
    <_>
      <internalNodes>
        0 -1 128241 -1.5598605386912823e-04</internalNodes>
      <leafValues>
        8.6666667461395264e-01 -8.7301588058471680e-01</leafValues></_>
    <_>
      <internalNodes>
        0 -1 15941 1.7648202629061416e-05</internalNodes>
      <leafValues>
        -6.7606341838836670e-01 7.9270642995834351e-01</leafValues></_>
    <_>
      <internalNodes>
        0 -1 80744 3.4854671685025096e-04</internalNodes>
      <leafValues>
        -5.1467567682266235e-01 8.3388268947601318e-01</leafValues></_>
    <_>
      <internalNodes>
        0 -1 151288 1.5379057003883645e-05</internalNodes>
      <leafValues>
        -3.8032811880111694e-01 9.0449333190917969e-01</leafValues></_>
    <_>
      <internalNodes>
        0 -1 12587 6.2369753140956163e-04</internalNodes>
      <leafValues>
        -2.5504618883132935e-01 8.1189960241317749e-01</leafValues></_>
    <_>
      <internalNodes>
        0 -1 160991 1.2330698082223535e-03</internalNodes>
      <leafValues>
        -1.8793864548206329e-01 8.8394957780838013e-01</leafValues></_>
    <_>
      <internalNodes>
        0 -1 120249 1.9705060869455338e-02</internalNodes>
      <leafValues>
        -1.2204598635435104e-01 9.4085776805877686e-01</leafValues></_>
    <_>
      <internalNodes>
        0 -1 46696 3.3341802190989256e-04</internalNodes>
      <leafValues>
        -9.8910070955753326e-02 7.4852806329727173e-01</leafValues></_>
    <_>
      <internalNodes>
        0 -1 158541 2.6156278181588277e-05</internalNodes>
      <leafValues>
        2.4238950014114380e-01 -5.0771790742874146e-01</leafValues></_>
    <_>
      <internalNodes>
        0 -1 89267 -4.2456991650396958e-05</internalNodes>
      <leafValues>
        8.2556170225143433e-01 -1.5765893459320068e-01</leafValues></_>
    <_>
      <internalNodes>
        0 -1 23726 4.9030897207558155e-03</internalNodes>
      <leafValues>
        1.6010874509811401e-01 -8.1336903572082520e-01</leafValues></_>
    <_>
      <internalNodes>
        0 -1 56847 1.1015765368938446e-02</internalNodes>
      <leafValues>
        -1.3004358112812042e-01 9.0410929918289185e-01</leafValues></_>
    <_>
      <internalNodes>
        0 -1 112805 -1.2770562898367643e-04</internalNodes>
      <leafValues>
        8.1299716234207153e-01 -6.6358111798763275e-02</leafValues></_>
    <_>
      <internalNodes>
        0 -1 162301 -3.3604982309043407e-03</internalNodes>
      <leafValues>
        -8.9868921041488647e-01 1.0192324966192245e-01</leafValues></_>
    <_>
      <internalNodes>
        0 -1 70818 2.7666348032653332e-03</internalNodes>
      <leafValues>
        -1.0510379821062088e-01 7.3768281936645508e-01</leafValues></_>
    <_>
      <internalNodes>
        0 -1 13030 -1.8858129624277353e-04</internalNodes>
      <leafValues>
        -7.9451149702072144e-01 9.7256913781166077e-02</leafValues></_>
    <_>
      <internalNodes>
        0 -1 135894 -5.9420224279165268e-03</internalNodes>
      <leafValues>
        8.9032042026519775e-01 -6.1363641172647476e-02</leafValues></_>
    <_>
      <internalNodes>
        0 -1 113361 1.9952058792114258e-03</internalNodes>
      <leafValues>
        6.0670051723718643e-02 -9.5396405458450317e-01</leafValues></_>
    <_>
      <internalNodes>
        0 -1 24870 7.4674836359918118e-03</internalNodes>
      <leafValues>
        -5.0582282245159149e-02 9.2925077676773071e-01</leafValues></_>
    <_>
      <internalNodes>
        0 -1 160809 -5.6910117564257234e-05</internalNodes>
      <leafValues>
        -7.9771065711975098e-01 6.5738260746002197e-02</leafValues></_>
    <_>
      <internalNodes>
        0 -1 124322 7.5753114651888609e-04</internalNodes>
      <leafValues>
        -3.8437407463788986e-02 9.3761801719665527e-01</leafValues></_>
    <_>
      <internalNodes>
        0 -1 144792 -4.2826437857002020e-04</internalNodes>
      <leafValues>
        1. -2.8292544186115265e-02</leafValues></_>
    <_>
      <internalNodes>
        0 -1 38 -2.9598214314319193e-04</internalNodes>
      <leafValues>
        -1. 4.4628873467445374e-02</leafValues></_>
    <_>
      <internalNodes>
        0 -1 34985 -2.3189654166344553e-04</internalNodes>
      <leafValues>
        8.8179510831832886e-01 -2.7986250817775726e-02</leafValues></_>
    <_>
      <internalNodes>
        0 -1 157199 -2.7023485017707571e-05</internalNodes>
      <leafValues>
        -1. 2.9950892552733421e-02</leafValues></_>
    <_>
      <internalNodes>
        0 -1 31917 1.1793864541687071e-04</internalNodes>
      <leafValues>
        -2.2749207913875580e-02 9.2518252134323120e-01</leafValues></_>
    <_>
      <internalNodes>
        0 -1 137369 2.6696920031099580e-05</internalNodes>
      <leafValues>
        2.8521355241537094e-02 -9.1978889703750610e-01</leafValues></_>
    <_>
      <internalNodes>
        0 -1 157135 3.0801020329818130e-05</internalNodes>
      <leafValues>
        -1.9993565976619720e-02 8.9640158414840698e-01</leafValues></_>
    <_>
      <internalNodes>
        0 -1 42404 -2.4774498306214809e-03</internalNodes>
      <leafValues>
        -1. 1.4012513682246208e-02</leafValues></_>
    <_>
      <internalNodes>
        0 -1 7780 -1.0749593639047816e-04</internalNodes>
      <leafValues>
        8.9553946256637573e-01 -1.2256685644388199e-02</leafValues></_>
    <_>
      <internalNodes>
        0 -1 75856 1.7887584865093231e-02</internalNodes>
      <leafValues>
        1.2658270075917244e-02 -1.</leafValues></_>
    <_>
      <internalNodes>
        0 -1 69047 -5.5441423319280148e-04</internalNodes>
      <leafValues>
        9.1443753242492676e-01 -1.5117095783352852e-02</leafValues></_>
    <_>
      <internalNodes>
        0 -1 96622 4.2780366493389010e-04</internalNodes>
      <leafValues>
        6.4732600003480911e-03 -1.</leafValues></_>
    <_>
      <internalNodes>
        0 -1 111996 6.1574815772473812e-03</internalNodes>
      <leafValues>
        -1.4388049021363258e-03 9.7862356901168823e-01</leafValues></_>
    <_>
      <internalNodes>
        0 -1 159139 2.6380596682429314e-03</internalNodes>
      <leafValues>
        -1.3322083279490471e-02 1.</leafValues></_>
    <_>
      <internalNodes>
        0 -1 89118 3.2869997085072100e-05</internalNodes>
      <leafValues>
        9.9523449316620827e-03 -1.</leafValues></_>
    <_>
      <internalNodes>
        0 -1 106398 1.5105782076716423e-03</internalNodes>
      <leafValues>
        -4.9851491348817945e-04 1.</leafValues></_>
    <_>
      <internalNodes>
        0 -1 11403 1.6916610766202211e-03</internalNodes>
      <leafValues>
        4.9884349573403597e-04 -1.</leafValues></_>
    <_>
      <internalNodes>
        0 -1 6418 -4.4292020611464977e-03</internalNodes>
      <leafValues>
        1. 4.1367118064350450e-11</leafValues></_>
    <_>
      <internalNodes>
        0 -1 3710 -7.5721973553299904e-03</internalNodes>
      <leafValues>
        -1. 5.1606888882815838e-04</leafValues></_>
    <_>
      <internalNodes>
        0 -1 2840 -3.8332566618919373e-03</internalNodes>
      <leafValues>
        1. 4.5828511124890170e-11</leafValues></_>
    <_>
      <internalNodes>
        0 -1 782 -1.5305505366995931e-03</internalNodes>
      <leafValues>
        -1. 3.1036674203848693e-15</leafValues></_>
    <_>
      <internalNodes>
        0 -1 782 -3.5707047209143639e-03</internalNodes>
      <leafValues>
        1. -7.6426596984629364e-16</leafValues></_>
    <_>
      <internalNodes>
        0 -1 438 -7.0035099051892757e-03</internalNodes>
      <leafValues>
        -1. -1.7759312900475499e-14</leafValues></_>
    <_>
      <internalNodes>
        0 -1 438 -4.4896360486745834e-03</internalNodes>
      <leafValues>
        1. 1.7454865542309780e-14</leafValues></_>
    <_>
      <internalNodes>
        0 -1 438 -7.0035099051892757e-03</internalNodes>
      <leafValues>
        -1. -1.8125559782472891e-14</leafValues></_>
    <_>
      <internalNodes>
        0 -1 438 -4.4896360486745834e-03</internalNodes>
      <leafValues>
        1. -1.9075101504036854e-15</leafValues></_>
    <_>
      <internalNodes>
        0 -1 438 -7.0035099051892757e-03</internalNodes>
      <leafValues>
        -1. 1.7471326780606720e-14</leafValues></_>
    <_>
      <internalNodes>
        0 -1 438 -4.4896360486745834e-03</internalNodes>
      <leafValues>
        1. -1.5426370711434448e-14</leafValues></_>
    <_>
      <internalNodes>
        0 -1 438 -7.0035099051892757e-03</internalNodes>
      <leafValues>
        -1. 1.1725667671254412e-14</leafValues></_>
    <_>
      <internalNodes>
        0 -1 438 -4.4896360486745834e-03</internalNodes>
      <leafValues>
        1. 2.3067817882233390e-15</leafValues></_>
    <_>
      <internalNodes>
        0 -1 438 -7.0035099051892757e-03</internalNodes>
      <leafValues>
        -1. -1.2809653850338366e-14</leafValues></_>
    <_>
      <internalNodes>
        0 -1 438 -4.4896360486745834e-03</internalNodes>
      <leafValues>
        1. 1.7707920023433792e-14</leafValues></_>
    <_>
      <internalNodes>
        0 -1 438 -7.0035099051892757e-03</internalNodes>
      <leafValues>
        -1. -1.4876936225692605e-15</leafValues></_>
    <_>
      <internalNodes>
        0 -1 438 -4.4896360486745834e-03</internalNodes>
      <leafValues>
        1. -2.0407459766112399e-14</leafValues></_>
    <_>
      <internalNodes>
        0 -1 438 -7.0035099051892757e-03</internalNodes>
      <leafValues>
        -1. 4.3201924446157301e-15</leafValues></_>
    <_>
      <internalNodes>
        0 -1 438 -4.4896360486745834e-03</internalNodes>
      <leafValues>
        1. -2.4047495659632121e-16</leafValues></_>
    <_>
      <internalNodes>
        0 -1 438 -7.0035099051892757e-03</internalNodes>
      <leafValues>
        -1. 9.4696996012950951e-15</leafValues></_>
    <_>
      <internalNodes>
        0 -1 438 -4.4896360486745834e-03</internalNodes>
      <leafValues>
        1. -4.1263527662848461e-15</leafValues></_>
    <_>
      <internalNodes>
        0 -1 438 -7.0035099051892757e-03</internalNodes>
      <leafValues>
        -1. -1.0718947837618995e-14</leafValues></_>
    <_>
      <internalNodes>
        0 -1 438 -4.4896360486745834e-03</internalNodes>
      <leafValues>
        1. 1.9083903023391774e-14</leafValues></_>
    <_>
      <internalNodes>
        0 -1 438 -7.0035099051892757e-03</internalNodes>
      <leafValues>
        -1. -1.1803319416693950e-14</leafValues></_>
    <_>
      <internalNodes>
        0 -1 438 -4.4896360486745834e-03</internalNodes>
      <leafValues>
        1. 9.2166163210508772e-15</leafValues></_>
    <_>
      <internalNodes>
        0 -1 438 -7.0035099051892757e-03</internalNodes>
      <leafValues>
        -1. -1.3491750001004468e-14</leafValues></_>
    <_>
      <internalNodes>
        0 -1 438 -4.4896360486745834e-03</internalNodes>
      <leafValues>
        1. 1.5235358005565025e-14</leafValues></_>
    <_>
      <internalNodes>
        0 -1 438 -7.0035099051892757e-03</internalNodes>
      <leafValues>
        -1. -4.6942867692320784e-16</leafValues></_>
    <_>
      <internalNodes>
        0 -1 438 -4.4896360486745834e-03</internalNodes>
      <leafValues>
        1. -2.3072059399716766e-15</leafValues></_>
    <_>
      <internalNodes>
        0 -1 438 -7.0035099051892757e-03</internalNodes>
      <leafValues>
        -1. -1.0199103389098296e-14</leafValues></_>
    <_>
      <internalNodes>
        0 -1 438 -4.4896360486745834e-03</internalNodes>
      <leafValues>
        1. 1.5482113737935017e-15</leafValues></_>
    <_>
      <internalNodes>
        0 -1 438 -7.0035099051892757e-03</internalNodes>
      <leafValues>
        -1. 1.0835472466106874e-14</leafValues></_>
    <_>
      <internalNodes>
        0 -1 438 -4.4896360486745834e-03</internalNodes>
      <leafValues>
        1. -8.5442593552123060e-15</leafValues></_>
    <_>
      <internalNodes>
        0 -1 438 -7.0035099051892757e-03</internalNodes>
      <leafValues>
        -1. -7.2650879859607539e-15</leafValues></_>
    <_>
      <internalNodes>
        0 -1 438 -4.4896360486745834e-03</internalNodes>
      <leafValues>
        1. 3.1759489769388151e-15</leafValues></_>
    <_>
      <internalNodes>
        0 -1 438 -7.0035099051892757e-03</internalNodes>
      <leafValues>
        -1. -2.7165449878859211e-15</leafValues></_>
    <_>
      <internalNodes>
        0 -1 438 -4.4896360486745834e-03</internalNodes>
      <leafValues>
        1. 1.7591748819443154e-15</leafValues></_>
    <_>
      <internalNodes>
        0 -1 438 -7.0035099051892757e-03</internalNodes>
      <leafValues>
        -1. -8.3877293606256058e-15</leafValues></_>
    <_>
      <internalNodes>
        0 -1 438 -4.4896360486745834e-03</internalNodes>
      <leafValues>
        1. 1.9814568890286384e-14</leafValues></_>
    <_>
      <internalNodes>
        0 -1 438 -7.0035099051892757e-03</internalNodes>
      <leafValues>
        -1. -1.0895283156578395e-15</leafValues></_>
    <_>
      <internalNodes>
        0 -1 438 -4.4896360486745834e-03</internalNodes>
      <leafValues>
        1. -1.9813975967223306e-14</leafValues></_>
    <_>
      <internalNodes>
        0 -1 438 -7.0035099051892757e-03</internalNodes>
      <leafValues>
        -1. 2.6382420011648866e-14</leafValues></_>
    <_>
      <internalNodes>
        0 -1 438 -4.4896360486745834e-03</internalNodes>
      <leafValues>
        1. -1.5957018218164427e-14</leafValues></_>
    <_>
      <internalNodes>
        0 -1 438 -7.0035099051892757e-03</internalNodes>
      <leafValues>
        -1. -7.5278167215429322e-17</leafValues></_>
    <_>
      <internalNodes>
        0 -1 438 -4.4896360486745834e-03</internalNodes>
      <leafValues>
        1. -3.2411343032189011e-15</leafValues></_>
    <_>
      <internalNodes>
        0 -1 438 -7.0035099051892757e-03</internalNodes>
      <leafValues>
        -1. 2.4873762853030654e-14</leafValues></_>
    <_>
      <internalNodes>
        0 -1 438 -4.4896360486745834e-03</internalNodes>
      <leafValues>
        1. -2.9584075803262139e-14</leafValues></_>
    <_>
      <internalNodes>
        0 -1 438 -7.0035099051892757e-03</internalNodes>
      <leafValues>
        -1. 1.9055573159437907e-14</leafValues></_>
    <_>
      <internalNodes>
        0 -1 438 -4.4896360486745834e-03</internalNodes>
      <leafValues>
        1. 7.0242549197162014e-15</leafValues></_>
    <_>
      <internalNodes>
        0 -1 438 -7.0035099051892757e-03</internalNodes>
      <leafValues>
        -1. -2.0306429064295695e-14</leafValues></_>
    <_>
      <internalNodes>
        0 -1 438 -4.4896360486745834e-03</internalNodes>
      <leafValues>
        1. 1.9452257323361935e-14</leafValues></_>
    <_>
      <internalNodes>
        0 -1 438 -7.0035099051892757e-03</internalNodes>
      <leafValues>
        -1. -1.0392168455798916e-14</leafValues></_>
    <_>
      <internalNodes>
        0 -1 438 -4.4896360486745834e-03</internalNodes>
      <leafValues>
        1. 1.3460538530964041e-14</leafValues></_>
    <_>
      <internalNodes>
        0 -1 438 -7.0035099051892757e-03</internalNodes>
      <leafValues>
        -1. -2.5795661654360973e-14</leafValues></_>
    <_>
      <internalNodes>
        0 -1 438 -4.4896360486745834e-03</internalNodes>
      <leafValues>
        1. 2.2486339504822206e-14</leafValues></_>
    <_>
      <internalNodes>
        0 -1 438 -7.0035099051892757e-03</internalNodes>
      <leafValues>
        -1. -1.9368487458944379e-14</leafValues></_>
    <_>
      <internalNodes>
        0 -1 438 -4.4896360486745834e-03</internalNodes>
      <leafValues>
        1. -3.9757138858462996e-15</leafValues></_>
    <_>
      <internalNodes>
        0 -1 438 -7.0035099051892757e-03</internalNodes>
      <leafValues>
        -1. 3.4794095417209825e-15</leafValues></_>
    <_>
      <internalNodes>
        0 -1 438 -4.4896360486745834e-03</internalNodes>
      <leafValues>
        1. -1.9777236760169098e-15</leafValues></_>
    <_>
      <internalNodes>
        0 -1 438 -7.0035099051892757e-03</internalNodes>
      <leafValues>
        -1. 4.0028049641148075e-15</leafValues></_>
    <_>
      <internalNodes>
        0 -1 438 -4.4896360486745834e-03</internalNodes>
      <leafValues>
        1. -3.3265863750697039e-15</leafValues></_>
    <_>
      <internalNodes>
        0 -1 438 -7.0035099051892757e-03</internalNodes>
      <leafValues>
        -1. 4.8571033364741816e-15</leafValues></_></weakClassifiers></stage13>
</opencv_storage>
