<?xml version="1.0"?>
<opencv_storage>
<stage9>
  <maxWeakCount>100</maxWeakCount>
  <stageThreshold>-2.9907071590423584e+00</stageThreshold>
  <weakClassifiers>
    <_>
      <internalNodes>
        0 -1 128241 -1.5598605386912823e-04</internalNodes>
      <leafValues>
        9.1780823469161987e-01 -8.7421381473541260e-01</leafValues></_>
    <_>
      <internalNodes>
        0 -1 18265 -1.4847149941488169e-05</internalNodes>
      <leafValues>
        9.3334460258483887e-01 -6.3946491479873657e-01</leafValues></_>
    <_>
      <internalNodes>
        0 -1 138970 1.0588920849841088e-04</internalNodes>
      <leafValues>
        -5.6570726633071899e-01 8.3980017900466919e-01</leafValues></_>
    <_>
      <internalNodes>
        0 -1 91653 2.6028158026747406e-04</internalNodes>
      <leafValues>
        -4.8154065012931824e-01 8.3463114500045776e-01</leafValues></_>
    <_>
      <internalNodes>
        0 -1 136585 5.7917536469176412e-04</internalNodes>
      <leafValues>
        -2.6217758655548096e-01 8.8978725671768188e-01</leafValues></_>
    <_>
      <internalNodes>
        0 -1 151276 -1.6053869330789894e-05</internalNodes>
      <leafValues>
        8.4644067287445068e-01 -2.0345765352249146e-01</leafValues></_>
    <_>
      <internalNodes>
        0 -1 113660 1.6893731663003564e-04</internalNodes>
      <leafValues>
        -1.1989469081163406e-01 8.2571619749069214e-01</leafValues></_>
    <_>
      <internalNodes>
        0 -1 60518 -2.0069099264219403e-04</internalNodes>
      <leafValues>
        -7.9820895195007324e-01 2.2782739996910095e-01</leafValues></_>
    <_>
      <internalNodes>
        0 -1 82233 -9.5992314163595438e-04</internalNodes>
      <leafValues>
        1. -1.6030476987361908e-01</leafValues></_>
    <_>
      <internalNodes>
        0 -1 12258 2.9639233835041523e-03</internalNodes>
      <leafValues>
        1.4082144200801849e-01 -9.5454382896423340e-01</leafValues></_>
    <_>
      <internalNodes>
        0 -1 113006 2.7631237171590328e-03</internalNodes>
      <leafValues>
        -1.2958326935768127e-01 1.</leafValues></_>
    <_>
      <internalNodes>
        0 -1 106703 -2.0870289299637079e-03</internalNodes>
      <leafValues>
        -7.7566313743591309e-01 1.2372815608978271e-01</leafValues></_>
    <_>
      <internalNodes>
        0 -1 150291 1.9747382611967623e-04</internalNodes>
      <leafValues>
        -9.3972332775592804e-02 9.1670817136764526e-01</leafValues></_>
    <_>
      <internalNodes>
        0 -1 27999 3.0496157705783844e-03</internalNodes>
      <leafValues>
        -3.5014078021049500e-02 9.1438376903533936e-01</leafValues></_>
    <_>
      <internalNodes>
        0 -1 12257 -1.4037512301001698e-05</internalNodes>
      <leafValues>
        -8.6951035261154175e-01 9.1032430529594421e-02</leafValues></_>
    <_>
      <internalNodes>
        0 -1 119892 -6.7136005964130163e-04</internalNodes>
      <leafValues>
        1. -4.2832273989915848e-02</leafValues></_>
    <_>
      <internalNodes>
        0 -1 4680 -5.9460498392581940e-02</internalNodes>
      <leafValues>
        -8.9847028255462646e-01 5.0339356064796448e-02</leafValues></_>
    <_>
      <internalNodes>
        0 -1 157340 2.4478984414599836e-04</internalNodes>
      <leafValues>
        -3.0644958838820457e-02 8.5843336582183838e-01</leafValues></_>
    <_>
      <internalNodes>
        0 -1 29541 -1.0890470730373636e-04</internalNodes>
      <leafValues>
        -8.6293905973434448e-01 3.2066751271486282e-02</leafValues></_>
    <_>
      <internalNodes>
        0 -1 96088 -1.5897017146926373e-04</internalNodes>
      <leafValues>
        9.4540947675704956e-01 -1.8723776564002037e-02</leafValues></_>
    <_>
      <internalNodes>
        0 -1 26409 -8.3807914052158594e-04</internalNodes>
      <leafValues>
        -1. 2.4422254413366318e-02</leafValues></_>
    <_>
      <internalNodes>
        0 -1 5433 -7.6422584243118763e-04</internalNodes>
      <leafValues>
        9.1604501008987427e-01 -2.1840570494532585e-02</leafValues></_>
    <_>
      <internalNodes>
        0 -1 161410 3.6108158383285627e-05</internalNodes>
      <leafValues>
        -1.6378697007894516e-02 1.</leafValues></_>
    <_>
      <internalNodes>
        0 -1 33133 -1.2529399245977402e-03</internalNodes>
      <leafValues>
        -1. 1.6030389815568924e-02</leafValues></_>
    <_>
      <internalNodes>
        0 -1 136703 -5.7353451848030090e-03</internalNodes>
      <leafValues>
        9.7668260335922241e-01 -3.0497170519083738e-04</leafValues></_>
    <_>
      <internalNodes>
        0 -1 41137 -2.7564677293412387e-04</internalNodes>
      <leafValues>
        -1. 3.2496438361704350e-03</leafValues></_>
    <_>
      <internalNodes>
        0 -1 12720 -1.4283788914326578e-05</internalNodes>
      <leafValues>
        1. -2.6777090970426798e-03</leafValues></_>
    <_>
      <internalNodes>
        0 -1 3984 -1.7362482321914285e-04</internalNodes>
      <leafValues>
        -1. 1.8703717505559325e-03</leafValues></_>
    <_>
      <internalNodes>
        0 -1 4527 -1.3744433817919344e-04</internalNodes>
      <leafValues>
        1. -3.3613331615924835e-03</leafValues></_>
    <_>
      <internalNodes>
        0 -1 33827 2.5058798200916499e-05</internalNodes>
      <leafValues>
        2.2586053237318993e-03 -1.</leafValues></_>
    <_>
      <internalNodes>
        0 -1 936 -2.0832328591495752e-03</internalNodes>
      <leafValues>
        1. -2.2586141712963581e-03</leafValues></_>
    <_>
      <internalNodes>
        0 -1 838 -3.8116646464914083e-03</internalNodes>
      <leafValues>
        -1. -3.8406695601622687e-09</leafValues></_>
    <_>
      <internalNodes>
        0 -1 838 -1.5711151063442230e-02</internalNodes>
      <leafValues>
        1. -6.9222433537465770e-15</leafValues></_>
    <_>
      <internalNodes>
        0 -1 39 -4.6204862883314490e-05</internalNodes>
      <leafValues>
        -1. 5.2409231875117854e-15</leafValues></_>
    <_>
      <internalNodes>
        0 -1 34 -1.2741828686557710e-04</internalNodes>
      <leafValues>
        1. -6.0249190957984734e-15</leafValues></_>
    <_>
      <internalNodes>
        0 -1 14 -6.4643812947906554e-05</internalNodes>
      <leafValues>
        -1. 2.5360484925181920e-14</leafValues></_>
    <_>
      <internalNodes>
        0 -1 14 -4.9405240133637562e-05</internalNodes>
      <leafValues>
        1. -7.2589613966532636e-15</leafValues></_>
    <_>
      <internalNodes>
        0 -1 14 -6.4643812947906554e-05</internalNodes>
      <leafValues>
        -1. 2.4193465376828047e-15</leafValues></_>
    <_>
      <internalNodes>
        0 -1 14 -4.9405240133637562e-05</internalNodes>
      <leafValues>
        1. -5.4630910357306422e-15</leafValues></_>
    <_>
      <internalNodes>
        0 -1 14 -6.4643812947906554e-05</internalNodes>
      <leafValues>
        -1. -1.0095794168653478e-14</leafValues></_>
    <_>
      <internalNodes>
        0 -1 14 -4.9405240133637562e-05</internalNodes>
      <leafValues>
        1. 1.7971228685417263e-14</leafValues></_>
    <_>
      <internalNodes>
        0 -1 14 -6.4643812947906554e-05</internalNodes>
      <leafValues>
        -1. -1.6066493838465257e-14</leafValues></_>
    <_>
      <internalNodes>
        0 -1 14 -4.9405240133637562e-05</internalNodes>
      <leafValues>
        1. 2.8582106130394924e-15</leafValues></_>
    <_>
      <internalNodes>
        0 -1 14 -6.4643812947906554e-05</internalNodes>
      <leafValues>
        -1. 9.2609390140818530e-15</leafValues></_>
    <_>
      <internalNodes>
        0 -1 14 -4.9405240133637562e-05</internalNodes>
      <leafValues>
        1. 4.4023605697300280e-15</leafValues></_>
    <_>
      <internalNodes>
        0 -1 14 -6.4643812947906554e-05</internalNodes>
      <leafValues>
        -1. 1.0942384541192838e-16</leafValues></_>
    <_>
      <internalNodes>
        0 -1 14 -4.9405240133637562e-05</internalNodes>
      <leafValues>
        1. -1.0946080569458182e-14</leafValues></_>
    <_>
      <internalNodes>
        0 -1 14 -6.4643812947906554e-05</internalNodes>
      <leafValues>
        -1. -1.2361799579037758e-14</leafValues></_>
    <_>
      <internalNodes>
        0 -1 14 -4.9405240133637562e-05</internalNodes>
      <leafValues>
        1. 1.6817979775203377e-14</leafValues></_>
    <_>
      <internalNodes>
        0 -1 14 -6.4643812947906554e-05</internalNodes>
      <leafValues>
        -1. -4.6288476507051713e-16</leafValues></_>
    <_>
      <internalNodes>
        0 -1 14 -4.9405240133637562e-05</internalNodes>
      <leafValues>
        1. -1.3516307180211264e-14</leafValues></_>
    <_>
      <internalNodes>
        0 -1 14 -6.4643812947906554e-05</internalNodes>
      <leafValues>
        -1. -1.3387295380256725e-15</leafValues></_>
    <_>
      <internalNodes>
        0 -1 14 -4.9405240133637562e-05</internalNodes>
      <leafValues>
        1. 5.3841437533982787e-15</leafValues></_>
    <_>
      <internalNodes>
        0 -1 14 -6.4643812947906554e-05</internalNodes>
      <leafValues>
        -1. -2.9581990408145999e-15</leafValues></_>
    <_>
      <internalNodes>
        0 -1 14 -4.9405240133637562e-05</internalNodes>
      <leafValues>
        1. 1.2374849815656105e-14</leafValues></_>
    <_>
      <internalNodes>
        0 -1 14 -6.4643812947906554e-05</internalNodes>
      <leafValues>
        -1. -6.3165919265701764e-15</leafValues></_>
    <_>
      <internalNodes>
        0 -1 14 -4.9405240133637562e-05</internalNodes>
      <leafValues>
        1. -2.8449200308223619e-15</leafValues></_>
    <_>
      <internalNodes>
        0 -1 14 -6.4643812947906554e-05</internalNodes>
      <leafValues>
        -1. 1.4493955149031020e-14</leafValues></_>
    <_>
      <internalNodes>
        0 -1 14 -4.9405240133637562e-05</internalNodes>
      <leafValues>
        1. 1.0253795459469559e-15</leafValues></_>
    <_>
      <internalNodes>
        0 -1 14 -6.4643812947906554e-05</internalNodes>
      <leafValues>
        -1. 5.1805239150210414e-16</leafValues></_>
    <_>
      <internalNodes>
        0 -1 14 -4.9405240133637562e-05</internalNodes>
      <leafValues>
        1. -2.3230510465027839e-14</leafValues></_>
    <_>
      <internalNodes>
        0 -1 14 -6.4643812947906554e-05</internalNodes>
      <leafValues>
        -1. 6.8096819924189003e-15</leafValues></_>
    <_>
      <internalNodes>
        0 -1 14 -4.9405240133637562e-05</internalNodes>
      <leafValues>
        1. -1.0287490430111335e-15</leafValues></_>
    <_>
      <internalNodes>
        0 -1 14 -6.4643812947906554e-05</internalNodes>
      <leafValues>
        -1. 1.2496745480062525e-14</leafValues></_>
    <_>
      <internalNodes>
        0 -1 14 -4.9405240133637562e-05</internalNodes>
      <leafValues>
        1. -7.8370368191988532e-16</leafValues></_>
    <_>
      <internalNodes>
        0 -1 14 -6.4643812947906554e-05</internalNodes>
      <leafValues>
        -1. 4.2925970111666915e-16</leafValues></_>
    <_>
      <internalNodes>
        0 -1 14 -4.9405240133637562e-05</internalNodes>
      <leafValues>
        1. 3.3013155706048455e-15</leafValues></_>
    <_>
      <internalNodes>
        0 -1 14 -6.4643812947906554e-05</internalNodes>
      <leafValues>
        -1. -1.1452206472365150e-14</leafValues></_>
    <_>
      <internalNodes>
        0 -1 14 -4.9405240133637562e-05</internalNodes>
      <leafValues>
        1. -9.6695909065176375e-15</leafValues></_>
    <_>
      <internalNodes>
        0 -1 14 -6.4643812947906554e-05</internalNodes>
      <leafValues>
        -1. 5.7958038833462368e-15</leafValues></_>
    <_>
      <internalNodes>
        0 -1 14 -4.9405240133637562e-05</internalNodes>
      <leafValues>
        1. -6.9933788747228876e-15</leafValues></_>
    <_>
      <internalNodes>
        0 -1 14 -6.4643812947906554e-05</internalNodes>
      <leafValues>
        -1. 1.8870899648145735e-14</leafValues></_>
    <_>
      <internalNodes>
        0 -1 14 -4.9405240133637562e-05</internalNodes>
      <leafValues>
        1. -9.6793504201359015e-15</leafValues></_>
    <_>
      <internalNodes>
        0 -1 14 -6.4643812947906554e-05</internalNodes>
      <leafValues>
        -1. 5.4016508656268411e-16</leafValues></_>
    <_>
      <internalNodes>
        0 -1 14 -4.9405240133637562e-05</internalNodes>
      <leafValues>
        1. -7.8194922257623749e-15</leafValues></_>
    <_>
      <internalNodes>
        0 -1 14 -6.4643812947906554e-05</internalNodes>
      <leafValues>
        -1. 4.2230672529001382e-16</leafValues></_>
    <_>
      <internalNodes>
        0 -1 14 -4.9405240133637562e-05</internalNodes>
      <leafValues>
        1. 2.5624030756390623e-14</leafValues></_>
    <_>
      <internalNodes>
        0 -1 14 -6.4643812947906554e-05</internalNodes>
      <leafValues>
        -1. -1.0954101124435733e-14</leafValues></_>
    <_>
      <internalNodes>
        0 -1 14 -4.9405240133637562e-05</internalNodes>
      <leafValues>
        1. -3.2135917563895066e-15</leafValues></_>
    <_>
      <internalNodes>
        0 -1 14 -6.4643812947906554e-05</internalNodes>
      <leafValues>
        -1. -4.4164962790702814e-15</leafValues></_>
    <_>
      <internalNodes>
        0 -1 14 -4.9405240133637562e-05</internalNodes>
      <leafValues>
        1. 1.9123300219834466e-14</leafValues></_>
    <_>
      <internalNodes>
        0 -1 14 -6.4643812947906554e-05</internalNodes>
      <leafValues>
        -1. -2.7278735029840316e-14</leafValues></_>
    <_>
      <internalNodes>
        0 -1 14 -4.9405240133637562e-05</internalNodes>
      <leafValues>
        1. 1.9517068896354045e-14</leafValues></_>
    <_>
      <internalNodes>
        0 -1 14 -6.4643812947906554e-05</internalNodes>
      <leafValues>
        -1. -7.1199429612180988e-15</leafValues></_>
    <_>
      <internalNodes>
        0 -1 14 -4.9405240133637562e-05</internalNodes>
      <leafValues>
        1. 7.2578280665698373e-15</leafValues></_>
    <_>
      <internalNodes>
        0 -1 14 -6.4643812947906554e-05</internalNodes>
      <leafValues>
        -1. -5.1185171857546456e-15</leafValues></_>
    <_>
      <internalNodes>
        0 -1 14 -4.9405240133637562e-05</internalNodes>
      <leafValues>
        1. 1.0485362408787623e-14</leafValues></_>
    <_>
      <internalNodes>
        0 -1 14 -6.4643812947906554e-05</internalNodes>
      <leafValues>
        -1. -5.9315574302862099e-15</leafValues></_>
    <_>
      <internalNodes>
        0 -1 14 -4.9405240133637562e-05</internalNodes>
      <leafValues>
        1. 2.7521999927676436e-15</leafValues></_>
    <_>
      <internalNodes>
        0 -1 14 -6.4643812947906554e-05</internalNodes>
      <leafValues>
        -1. -2.5569790154580246e-15</leafValues></_>
    <_>
      <internalNodes>
        0 -1 14 -4.9405240133637562e-05</internalNodes>
      <leafValues>
        1. 4.0010134894313647e-15</leafValues></_>
    <_>
      <internalNodes>
        0 -1 14 -6.4643812947906554e-05</internalNodes>
      <leafValues>
        -1. -2.1875602068314017e-15</leafValues></_>
    <_>
      <internalNodes>
        0 -1 14 -4.9405240133637562e-05</internalNodes>
      <leafValues>
        1. 1.9195801581438224e-15</leafValues></_>
    <_>
      <internalNodes>
        0 -1 14 -6.4643812947906554e-05</internalNodes>
      <leafValues>
        -1. -2.0024519558790518e-15</leafValues></_>
    <_>
      <internalNodes>
        0 -1 14 -4.9405240133637562e-05</internalNodes>
      <leafValues>
        1. 2.1851912674361682e-15</leafValues></_>
    <_>
      <internalNodes>
        0 -1 14 -6.4643812947906554e-05</internalNodes>
      <leafValues>
        -1. -1.7151011107207140e-15</leafValues></_>
    <_>
      <internalNodes>
        0 -1 14 -4.9405240133637562e-05</internalNodes>
      <leafValues>
        1. 2.1712484698496520e-15</leafValues></_>
    <_>
      <internalNodes>
        0 -1 14 -6.4643812947906554e-05</internalNodes>
      <leafValues>
        -1. -1.7287789987529764e-15</leafValues></_>
    <_>
      <internalNodes>
        0 -1 14 -4.9405240133637562e-05</internalNodes>
      <leafValues>
        1. 2.1301169734474568e-15</leafValues></_>
    <_>
      <internalNodes>
        0 -1 14 -6.4643812947906554e-05</internalNodes>
      <leafValues>
        -1. -1.7695849168660707e-15</leafValues></_></weakClassifiers></stage9>
</opencv_storage>
