<?xml version="1.0"?>
<opencv_storage>
<stage3>
  <maxWeakCount>22</maxWeakCount>
  <stageThreshold>-1.3976879119873047e+00</stageThreshold>
  <weakClassifiers>
    <_>
      <internalNodes>
        0 -1 108816 -1.0631117224693298e-01</internalNodes>
      <leafValues>
        4.8648649454116821e-01 -5.5981940031051636e-01</leafValues></_>
    <_>
      <internalNodes>
        0 -1 70704 -2.0467587746679783e-03</internalNodes>
      <leafValues>
        -6.5428978204727173e-01 5.8857332915067673e-02</leafValues></_>
    <_>
      <internalNodes>
        0 -1 89814 -1.6300242859870195e-03</internalNodes>
      <leafValues>
        -5.2833098173141479e-01 1.1402536183595657e-01</leafValues></_>
    <_>
      <internalNodes>
        0 -1 162318 1.7806364921852946e-03</internalNodes>
      <leafValues>
        7.3091946542263031e-02 -8.4257471561431885e-01</leafValues></_>
    <_>
      <internalNodes>
        0 -1 162038 -7.4374329415149987e-05</internalNodes>
      <leafValues>
        -3.2978114485740662e-01 2.4625715613365173e-01</leafValues></_>
    <_>
      <internalNodes>
        0 -1 14793 -1.0998910511261784e-05</internalNodes>
      <leafValues>
        -2.8043556213378906e-01 2.0276744663715363e-01</leafValues></_>
    <_>
      <internalNodes>
        0 -1 86386 -2.3861575871706009e-02</internalNodes>
      <leafValues>
        5.2012538909912109e-01 -1.0823444277048111e-01</leafValues></_>
    <_>
      <internalNodes>
        0 -1 5002 -1.2153827119618654e-03</internalNodes>
      <leafValues>
        -3.3378040790557861e-01 1.7253944277763367e-01</leafValues></_>
    <_>
      <internalNodes>
        0 -1 8159 -7.9156416177283973e-05</internalNodes>
      <leafValues>
        -3.0748412013053894e-01 2.1084728837013245e-01</leafValues></_>
    <_>
      <internalNodes>
        0 -1 107040 -6.6653965041041374e-03</internalNodes>
      <leafValues>
        -7.0780712366104126e-01 6.4558841288089752e-02</leafValues></_>
    <_>
      <internalNodes>
        0 -1 94344 1.7632231116294861e-02</internalNodes>
      <leafValues>
        -1.2692540884017944e-01 4.6249806880950928e-01</leafValues></_>
    <_>
      <internalNodes>
        0 -1 89906 -2.4259751662611961e-03</internalNodes>
      <leafValues>
        -5.5048894882202148e-01 9.6174791455268860e-02</leafValues></_>
    <_>
      <internalNodes>
        0 -1 103268 1.9960780628025532e-03</internalNodes>
      <leafValues>
        -1.7756913602352142e-01 2.9176330566406250e-01</leafValues></_>
    <_>
      <internalNodes>
        0 -1 25786 7.1453605778515339e-04</internalNodes>
      <leafValues>
        7.5951039791107178e-02 -5.9238290786743164e-01</leafValues></_>
    <_>
      <internalNodes>
        0 -1 25571 1.2714821845293045e-02</internalNodes>
      <leafValues>
        -1.2254215031862259e-01 4.1657763719558716e-01</leafValues></_>
    <_>
      <internalNodes>
        0 -1 209 8.6114428937435150e-02</internalNodes>
      <leafValues>
        4.9588058143854141e-02 -8.5714352130889893e-01</leafValues></_>
    <_>
      <internalNodes>
        0 -1 151880 1.3884537620469928e-03</internalNodes>
      <leafValues>
        5.7553581893444061e-02 -6.7023956775665283e-01</leafValues></_>
    <_>
      <internalNodes>
        0 -1 94889 -3.8377039134502411e-02</internalNodes>
      <leafValues>
        4.4251486659049988e-01 -1.1800925433635712e-01</leafValues></_>
    <_>
      <internalNodes>
        0 -1 135631 -1.2582591734826565e-02</internalNodes>
      <leafValues>
        5.4317706823348999e-01 -8.0068022012710571e-02</leafValues></_>
    <_>
      <internalNodes>
        0 -1 95681 -7.1765709435567260e-04</internalNodes>
      <leafValues>
        3.1365814805030823e-01 -1.5217864513397217e-01</leafValues></_>
    <_>
      <internalNodes>
        0 -1 162323 -8.9702976401895285e-04</internalNodes>
      <leafValues>
        -5.7548671960830688e-01 8.2417763769626617e-02</leafValues></_>
    <_>
      <internalNodes>
        0 -1 12279 -3.8815647712908685e-05</internalNodes>
      <leafValues>
        -2.5348073244094849e-01 1.6557633876800537e-01</leafValues></_></weakClassifiers></stage3>
</opencv_storage>
