<?xml version="1.0"?>
<opencv_storage>
<stage17>
  <maxWeakCount>33</maxWeakCount>
  <stageThreshold>-1.1618404388427734e+00</stageThreshold>
  <weakClassifiers>
    <_>
      <internalNodes>
        0 -1 38254 -3.5915918648242950e-02</internalNodes>
      <leafValues>
        -7.4160206317901611e-01 -3.0191972851753235e-01</leafValues></_>
    <_>
      <internalNodes>
        0 -1 162 2.5233356282114983e-03</internalNodes>
      <leafValues>
        4.9459591507911682e-02 -5.6456178426742554e-01</leafValues></_>
    <_>
      <internalNodes>
        0 -1 144019 7.3945350013673306e-03</internalNodes>
      <leafValues>
        8.5278756916522980e-02 -4.9079948663711548e-01</leafValues></_>
    <_>
      <internalNodes>
        0 -1 148943 -3.5870645660907030e-05</internalNodes>
      <leafValues>
        2.2997115552425385e-01 -1.3272930681705475e-01</leafValues></_>
    <_>
      <internalNodes>
        0 -1 161231 7.3747346177697182e-03</internalNodes>
      <leafValues>
        -6.1197172850370407e-02 3.9023250341415405e-01</leafValues></_>
    <_>
      <internalNodes>
        0 -1 19368 -1.6179627180099487e-01</internalNodes>
      <leafValues>
        4.8583519458770752e-01 -4.5552194118499756e-02</leafValues></_>
    <_>
      <internalNodes>
        0 -1 115 9.9967103451490402e-03</internalNodes>
      <leafValues>
        -6.6344715654850006e-02 4.9884572625160217e-01</leafValues></_>
    <_>
      <internalNodes>
        0 -1 38596 1.8171926494687796e-03</internalNodes>
      <leafValues>
        1.1335732787847519e-01 -2.4569253623485565e-01</leafValues></_>
    <_>
      <internalNodes>
        0 -1 152473 2.9294791602296755e-05</internalNodes>
      <leafValues>
        -1.7749787867069244e-01 1.5205182135105133e-01</leafValues></_>
    <_>
      <internalNodes>
        0 -1 148242 -1.3055984163656831e-04</internalNodes>
      <leafValues>
        2.4351538717746735e-01 -1.0918163508176804e-01</leafValues></_>
    <_>
      <internalNodes>
        0 -1 11 9.1462871059775352e-03</internalNodes>
      <leafValues>
        3.2162841409444809e-02 -7.7697217464447021e-01</leafValues></_>
    <_>
      <internalNodes>
        0 -1 24129 1.2707875575870275e-03</internalNodes>
      <leafValues>
        -1.0123018175363541e-01 2.3503433167934418e-01</leafValues></_>
    <_>
      <internalNodes>
        0 -1 159731 4.9638410564512014e-04</internalNodes>
      <leafValues>
        7.3836147785186768e-02 -3.4126603603363037e-01</leafValues></_>
    <_>
      <internalNodes>
        0 -1 162330 -1.9762567244470119e-03</internalNodes>
      <leafValues>
        -7.5889831781387329e-01 2.8234118595719337e-02</leafValues></_>
    <_>
      <internalNodes>
        0 -1 124 -2.1357869263738394e-03</internalNodes>
      <leafValues>
        2.1390819549560547e-01 -1.3675491511821747e-01</leafValues></_>
    <_>
      <internalNodes>
        0 -1 97980 -1.0205220896750689e-03</internalNodes>
      <leafValues>
        2.0612479746341705e-01 -1.2730710208415985e-01</leafValues></_>
    <_>
      <internalNodes>
        0 -1 36790 -6.6762422211468220e-03</internalNodes>
      <leafValues>
        -4.6713533997535706e-01 5.1516268402338028e-02</leafValues></_>
    <_>
      <internalNodes>
        0 -1 16439 -1.7536357045173645e-02</internalNodes>
      <leafValues>
        -7.1112322807312012e-01 2.7986560016870499e-02</leafValues></_>
    <_>
      <internalNodes>
        0 -1 13371 7.6977014541625977e-03</internalNodes>
      <leafValues>
        -7.1228049695491791e-02 3.1978374719619751e-01</leafValues></_>
    <_>
      <internalNodes>
        0 -1 137746 -1.1754374718293548e-03</internalNodes>
      <leafValues>
        2.0800277590751648e-01 -1.0366978496313095e-01</leafValues></_>
    <_>
      <internalNodes>
        0 -1 162235 3.4313133801333606e-04</internalNodes>
      <leafValues>
        9.6863813698291779e-02 -2.6345118880271912e-01</leafValues></_>
    <_>
      <internalNodes>
        0 -1 162246 -3.5793706774711609e-04</internalNodes>
      <leafValues>
        -3.4539580345153809e-01 7.1990706026554108e-02</leafValues></_>
    <_>
      <internalNodes>
        0 -1 151876 -1.6545497055631131e-04</internalNodes>
      <leafValues>
        2.5097793340682983e-01 -1.2277298420667648e-01</leafValues></_>
    <_>
      <internalNodes>
        0 -1 134631 6.6597090335562825e-04</internalNodes>
      <leafValues>
        -6.2939785420894623e-02 3.9826846122741699e-01</leafValues></_>
    <_>
      <internalNodes>
        0 -1 96463 1.1622950842138380e-04</internalNodes>
      <leafValues>
        -1.2292417883872986e-01 1.8301802873611450e-01</leafValues></_>
    <_>
      <internalNodes>
        0 -1 25788 -4.0980183985084295e-04</internalNodes>
      <leafValues>
        -3.2960888743400574e-01 7.3879137635231018e-02</leafValues></_>
    <_>
      <internalNodes>
        0 -1 149212 -1.1261415202170610e-03</internalNodes>
      <leafValues>
        3.3961606025695801e-01 -7.5210779905319214e-02</leafValues></_>
    <_>
      <internalNodes>
        0 -1 162335 -1.4270928222686052e-03</internalNodes>
      <leafValues>
        -5.6525087356567383e-01 3.9909671992063522e-02</leafValues></_>
    <_>
      <internalNodes>
        0 -1 138239 -4.9963407946052030e-05</internalNodes>
      <leafValues>
        1.7919495701789856e-01 -1.4686663448810577e-01</leafValues></_>
    <_>
      <internalNodes>
        0 -1 35633 9.0333245694637299e-02</internalNodes>
      <leafValues>
        -5.9873785823583603e-02 4.0690723061561584e-01</leafValues></_>
    <_>
      <internalNodes>
        0 -1 63210 -8.7151573970913887e-03</internalNodes>
      <leafValues>
        1.5951626002788544e-01 -1.3695767521858215e-01</leafValues></_>
    <_>
      <internalNodes>
        0 -1 123973 3.7308506667613983e-02</internalNodes>
      <leafValues>
        -5.6850120425224304e-02 4.3072193861007690e-01</leafValues></_>
    <_>
      <internalNodes>
        0 -1 46694 8.7843798100948334e-03</internalNodes>
      <leafValues>
        8.8714987039566040e-02 -2.6854518055915833e-01</leafValues></_></weakClassifiers></stage17>
</opencv_storage>
