<?xml version="1.0"?>
<opencv_storage>
<stage1>
  <maxWeakCount>18</maxWeakCount>
  <stageThreshold>-1.4791272878646851e+00</stageThreshold>
  <weakClassifiers>
    <_>
      <internalNodes>
        0 -1 94939 4.6388331800699234e-02</internalNodes>
      <leafValues>
        -5.6324446201324463e-01 4.6496814489364624e-01</leafValues></_>
    <_>
      <internalNodes>
        0 -1 94833 -3.2250355929136276e-02</internalNodes>
      <leafValues>
        8.2429862022399902e-01 -1.6452215611934662e-01</leafValues></_>
    <_>
      <internalNodes>
        0 -1 33 -2.1598129533231258e-03</internalNodes>
      <leafValues>
        -3.9999327063560486e-01 2.2215163707733154e-01</leafValues></_>
    <_>
      <internalNodes>
        0 -1 71038 -4.4210324995219707e-04</internalNodes>
      <leafValues>
        -3.8362708687782288e-01 1.9280587136745453e-01</leafValues></_>
    <_>
      <internalNodes>
        0 -1 81000 6.8049109540879726e-04</internalNodes>
      <leafValues>
        2.6984390616416931e-01 -3.1702280044555664e-01</leafValues></_>
    <_>
      <internalNodes>
        0 -1 4791 -3.9214438199996948e-01</internalNodes>
      <leafValues>
        -8.3178859949111938e-01 9.6851713955402374e-02</leafValues></_>
    <_>
      <internalNodes>
        0 -1 4255 -6.3648469746112823e-02</internalNodes>
      <leafValues>
        -7.9429328441619873e-01 5.8583989739418030e-02</leafValues></_>
    <_>
      <internalNodes>
        0 -1 159850 8.3931073546409607e-02</internalNodes>
      <leafValues>
        8.2828380167484283e-02 -8.1808477640151978e-01</leafValues></_>
    <_>
      <internalNodes>
        0 -1 78359 3.7754941731691360e-02</internalNodes>
      <leafValues>
        -1.4408721029758453e-01 5.5738914012908936e-01</leafValues></_>
    <_>
      <internalNodes>
        0 -1 133753 -1.9537396728992462e-03</internalNodes>
      <leafValues>
        -5.1641881465911865e-01 1.5651051700115204e-01</leafValues></_>
    <_>
      <internalNodes>
        0 -1 131856 -1.2101884000003338e-02</internalNodes>
      <leafValues>
        6.2799441814422607e-01 -1.0566777735948563e-01</leafValues></_>
    <_>
      <internalNodes>
        0 -1 1107 -1.3299781130626798e-04</internalNodes>
      <leafValues>
        -3.9708882570266724e-01 1.5584610402584076e-01</leafValues></_>
    <_>
      <internalNodes>
        0 -1 80972 -2.4305088445544243e-02</internalNodes>
      <leafValues>
        4.7215908765792847e-01 -1.3209073245525360e-01</leafValues></_>
    <_>
      <internalNodes>
        0 -1 60598 2.3407456465065479e-03</internalNodes>
      <leafValues>
        1.1984242498874664e-01 -4.8821204900741577e-01</leafValues></_>
    <_>
      <internalNodes>
        0 -1 125052 -1.2049440992996097e-03</internalNodes>
      <leafValues>
        5.5784898996353149e-01 -1.1992526054382324e-01</leafValues></_>
    <_>
      <internalNodes>
        0 -1 31694 3.3038076758384705e-01</internalNodes>
      <leafValues>
        9.4800055027008057e-02 -7.3085021972656250e-01</leafValues></_>
    <_>
      <internalNodes>
        0 -1 137017 2.4598442018032074e-02</internalNodes>
      <leafValues>
        -2.2725749015808105e-01 2.9091775417327881e-01</leafValues></_>
    <_>
      <internalNodes>
        0 -1 159731 8.7156251538544893e-04</internalNodes>
      <leafValues>
        1.2496124207973480e-01 -5.1154726743698120e-01</leafValues></_></weakClassifiers></stage1>
</opencv_storage>
