<?xml version="1.0"?>
<opencv_storage>
<stage9>
  <maxWeakCount>29</maxWeakCount>
  <stageThreshold>-1.2590016126632690e+00</stageThreshold>
  <weakClassifiers>
    <_>
      <internalNodes>
        0 -1 114412 -3.7869709194637835e-04</internalNodes>
      <leafValues>
        -8.0751174688339233e-01 -3.8554215431213379e-01</leafValues></_>
    <_>
      <internalNodes>
        0 -1 98640 9.0517452917993069e-04</internalNodes>
      <leafValues>
        2.5581011548638344e-02 -6.2861162424087524e-01</leafValues></_>
    <_>
      <internalNodes>
        0 -1 106788 3.6366845597513020e-04</internalNodes>
      <leafValues>
        1.0449268668889999e-01 -4.8844587802886963e-01</leafValues></_>
    <_>
      <internalNodes>
        0 -1 79272 -5.4156407713890076e-02</internalNodes>
      <leafValues>
        4.9630296230316162e-01 -7.7216938138008118e-02</leafValues></_>
    <_>
      <internalNodes>
        0 -1 84768 5.8369603939354420e-03</internalNodes>
      <leafValues>
        1.1279898881912231e-01 -3.8913190364837646e-01</leafValues></_>
    <_>
      <internalNodes>
        0 -1 48961 3.2830722630023956e-02</internalNodes>
      <leafValues>
        -1.1724420636892319e-01 3.3558866381645203e-01</leafValues></_>
    <_>
      <internalNodes>
        0 -1 49278 -7.9049728810787201e-03</internalNodes>
      <leafValues>
        3.6274352669715881e-01 -1.0850553214550018e-01</leafValues></_>
    <_>
      <internalNodes>
        0 -1 162096 4.7411542618647218e-04</internalNodes>
      <leafValues>
        6.7939274013042450e-02 -5.6531465053558350e-01</leafValues></_>
    <_>
      <internalNodes>
        0 -1 111178 -3.1760655343532562e-02</internalNodes>
      <leafValues>
        4.3722841143608093e-01 -8.2536190748214722e-02</leafValues></_>
    <_>
      <internalNodes>
        0 -1 16434 1.9213507766835392e-04</internalNodes>
      <leafValues>
        -1.6073855757713318e-01 2.4816271662712097e-01</leafValues></_>
    <_>
      <internalNodes>
        0 -1 5288 -2.4809144437313080e-02</internalNodes>
      <leafValues>
        2.3249918222427368e-01 -1.9870282709598541e-01</leafValues></_>
    <_>
      <internalNodes>
        0 -1 157 -3.3330832957290113e-04</internalNodes>
      <leafValues>
        1.8572159111499786e-01 -1.9473174214363098e-01</leafValues></_>
    <_>
      <internalNodes>
        0 -1 72383 -4.7336835414171219e-03</internalNodes>
      <leafValues>
        -3.5526528954505920e-01 1.0435708612203598e-01</leafValues></_>
    <_>
      <internalNodes>
        0 -1 1105 3.3415167126804590e-04</internalNodes>
      <leafValues>
        8.5642300546169281e-02 -3.7140265107154846e-01</leafValues></_>
    <_>
      <internalNodes>
        0 -1 99768 4.0041528642177582e-02</internalNodes>
      <leafValues>
        -8.1048794090747833e-02 4.1159120202064514e-01</leafValues></_>
    <_>
      <internalNodes>
        0 -1 121318 4.6291021862998605e-04</internalNodes>
      <leafValues>
        -1.5241168439388275e-01 2.1066443622112274e-01</leafValues></_>
    <_>
      <internalNodes>
        0 -1 1105 -8.4202598372939974e-05</internalNodes>
      <leafValues>
        -3.2914000749588013e-01 1.1272628605365753e-01</leafValues></_>
    <_>
      <internalNodes>
        0 -1 14305 -4.6856071799993515e-02</internalNodes>
      <leafValues>
        2.3035810887813568e-01 -1.5217690169811249e-01</leafValues></_>
    <_>
      <internalNodes>
        0 -1 70702 -8.0030888784676790e-04</internalNodes>
      <leafValues>
        -4.4032981991767883e-01 7.2020649909973145e-02</leafValues></_>
    <_>
      <internalNodes>
        0 -1 105676 -2.5204927660524845e-03</internalNodes>
      <leafValues>
        2.4330481886863708e-01 -1.3223604857921600e-01</leafValues></_>
    <_>
      <internalNodes>
        0 -1 53688 4.4144606217741966e-03</internalNodes>
      <leafValues>
        -1.1362482607364655e-01 2.8201887011528015e-01</leafValues></_>
    <_>
      <internalNodes>
        0 -1 2134 -1.8782361876219511e-03</internalNodes>
      <leafValues>
        -4.6813443303108215e-01 6.0021955519914627e-02</leafValues></_>
    <_>
      <internalNodes>
        0 -1 31352 2.7824630960822105e-03</internalNodes>
      <leafValues>
        -1.3530662655830383e-01 2.4987903237342834e-01</leafValues></_>
    <_>
      <internalNodes>
        0 -1 2204 -2.2373581305146217e-03</internalNodes>
      <leafValues>
        -6.1226427555084229e-01 4.4242974370718002e-02</leafValues></_>
    <_>
      <internalNodes>
        0 -1 10157 -2.2523407824337482e-03</internalNodes>
      <leafValues>
        1.6269098222255707e-01 -1.7009697854518890e-01</leafValues></_>
    <_>
      <internalNodes>
        0 -1 65086 6.7641384899616241e-02</internalNodes>
      <leafValues>
        5.5592715740203857e-02 -6.4506250619888306e-01</leafValues></_>
    <_>
      <internalNodes>
        0 -1 162204 -5.7831488084048033e-04</internalNodes>
      <leafValues>
        -4.8754742741584778e-01 5.5678810924291611e-02</leafValues></_>
    <_>
      <internalNodes>
        0 -1 158198 3.9831331378081813e-05</internalNodes>
      <leafValues>
        -1.6000713407993317e-01 1.7855757474899292e-01</leafValues></_>
    <_>
      <internalNodes>
        0 -1 15431 -1.2503860518336296e-02</internalNodes>
      <leafValues>
        -5.2412325143814087e-01 5.7364989072084427e-02</leafValues></_></weakClassifiers></stage9>
</opencv_storage>
