<?xml version="1.0"?>
<opencv_storage>
<cascade>
  <stageType>BOOST</stageType>
  <featureType>HAAR</featureType>
  <height>24</height>
  <width>24</width>
  <stageParams>
    <boostType>GAB</boostType>
    <minHitRate>9.9500000476837158e-01</minHitRate>
    <maxFalseAlarm>5.0000000000000000e-01</maxFalseAlarm>
    <weightTrimRate>9.4999998807907104e-01</weightTrimRate>
    <maxDepth>1</maxDepth>
    <maxWeakCount>100</maxWeakCount></stageParams>
  <featureParams>
    <maxCatCount>0</maxCatCount>
    <featSize>1</featSize>
    <mode>BASIC</mode></featureParams>
  <stageNum>15</stageNum>
  <stages>
    <!-- stage 0 -->
    <_>
      <maxWeakCount>8</maxWeakCount>
      <stageThreshold>-1.8366389274597168e+00</stageThreshold>
      <weakClassifiers>
        <_>
          <internalNodes>
            0 -1 79 -2.4550165235996246e-01</internalNodes>
          <leafValues>
            7.8125000000000000e-01 -6.2585967779159546e-01</leafValues></_>
        <_>
          <internalNodes>
            0 -1 68 -2.7187900617718697e-02</internalNodes>
          <leafValues>
            7.6170539855957031e-01 -3.1894323229789734e-01</leafValues></_>
        <_>
          <internalNodes>
            0 -1 560 -1.1488978634588420e-04</internalNodes>
          <leafValues>
            -7.0485800504684448e-01 3.0552440881729126e-01</leafValues></_>
        <_>
          <internalNodes>
            0 -1 560 1.3729066995438188e-04</internalNodes>
          <leafValues>
            3.0119395256042480e-01 -6.1588937044143677e-01</leafValues></_>
        <_>
          <internalNodes>
            0 -1 244 -1.0782480239868164e-03</internalNodes>
          <leafValues>
            -8.5415077209472656e-01 1.7779134213924408e-01</leafValues></_>
        <_>
          <internalNodes>
            0 -1 159 -8.1992219202220440e-04</internalNodes>
          <leafValues>
            -6.5216326713562012e-01 2.6595693826675415e-01</leafValues></_>
        <_>
          <internalNodes>
            0 -1 494 2.9060442000627518e-02</internalNodes>
          <leafValues>
            -3.3994740247726440e-01 4.8633757233619690e-01</leafValues></_>
        <_>
          <internalNodes>
            0 -1 66 -1.5902548329904675e-04</internalNodes>
          <leafValues>
            -7.4603521823883057e-01 2.3284833133220673e-01</leafValues></_></weakClassifiers></_>
    <!-- stage 1 -->
    <_>
      <maxWeakCount>6</maxWeakCount>
      <stageThreshold>-1.0398552417755127e+00</stageThreshold>
      <weakClassifiers>
        <_>
          <internalNodes>
            0 -1 396 -4.6156231313943863e-02</internalNodes>
          <leafValues>
            5.1744186878204346e-01 -6.5007323026657104e-01</leafValues></_>
        <_>
          <internalNodes>
            0 -1 366 -2.6517659425735474e-03</internalNodes>
          <leafValues>
            7.6948338747024536e-01 -3.4794867038726807e-01</leafValues></_>
        <_>
          <internalNodes>
            0 -1 514 -1.7961764708161354e-02</internalNodes>
          <leafValues>
            7.0739006996154785e-01 -2.6785349845886230e-01</leafValues></_>
        <_>
          <internalNodes>
            0 -1 98 -1.1318039149045944e-01</internalNodes>
          <leafValues>
            8.1005668640136719e-01 -1.8945187330245972e-01</leafValues></_>
        <_>
          <internalNodes>
            0 -1 46 -3.6677059531211853e-01</internalNodes>
          <leafValues>
            -9.5699322223663330e-01 2.3126094043254852e-01</leafValues></_>
        <_>
          <internalNodes>
            0 -1 163 5.6512411683797836e-03</internalNodes>
          <leafValues>
            2.6135104894638062e-01 -7.9103243350982666e-01</leafValues></_></weakClassifiers></_>
    <!-- stage 2 -->
    <_>
      <maxWeakCount>9</maxWeakCount>
      <stageThreshold>-1.1919035911560059e+00</stageThreshold>
      <weakClassifiers>
        <_>
          <internalNodes>
            0 -1 82 -5.3652029484510422e-02</internalNodes>
          <leafValues>
            3.9555555582046509e-01 -7.0476192235946655e-01</leafValues></_>
        <_>
          <internalNodes>
            0 -1 462 -2.0080678164958954e-02</internalNodes>
          <leafValues>
            4.7792369127273560e-01 -4.0679118037223816e-01</leafValues></_>
        <_>
          <internalNodes>
            0 -1 356 -1.9741831347346306e-03</internalNodes>
          <leafValues>
            -6.5981835126876831e-01 2.3485600948333740e-01</leafValues></_>
        <_>
          <internalNodes>
            0 -1 116 -7.1213638875633478e-04</internalNodes>
          <leafValues>
            -8.5527694225311279e-01 1.3296958804130554e-01</leafValues></_>
        <_>
          <internalNodes>
            0 -1 154 2.2372666746377945e-02</internalNodes>
          <leafValues>
            -2.5462526082992554e-01 4.7648361325263977e-01</leafValues></_>
        <_>
          <internalNodes>
            0 -1 122 -1.5676695329602808e-04</internalNodes>
          <leafValues>
            -6.1662769317626953e-01 2.2882139682769775e-01</leafValues></_>
        <_>
          <internalNodes>
            0 -1 190 2.8379977447912097e-04</internalNodes>
          <leafValues>
            1.4429470896720886e-01 -7.3482775688171387e-01</leafValues></_>
        <_>
          <internalNodes>
            0 -1 251 -1.5619741380214691e-01</internalNodes>
          <leafValues>
            7.3926484584808350e-01 -1.9680860638618469e-01</leafValues></_>
        <_>
          <internalNodes>
            0 -1 320 1.2866720557212830e-02</internalNodes>
          <leafValues>
            -2.4555864930152893e-01 6.5658771991729736e-01</leafValues></_></weakClassifiers></_>
    <!-- stage 3 -->
    <_>
      <maxWeakCount>10</maxWeakCount>
      <stageThreshold>-1.3852051496505737e+00</stageThreshold>
      <weakClassifiers>
        <_>
          <internalNodes>
            0 -1 63 -6.9219607114791870e-01</internalNodes>
          <leafValues>
            8.8108110427856445e-01 -5.7245904207229614e-01</leafValues></_>
        <_>
          <internalNodes>
            0 -1 189 1.8778659403324127e-02</internalNodes>
          <leafValues>
            -3.5300302505493164e-01 4.2994740605354309e-01</leafValues></_>
        <_>
          <internalNodes>
            0 -1 397 -2.5541950017213821e-02</internalNodes>
          <leafValues>
            5.5964255332946777e-01 -2.4764922261238098e-01</leafValues></_>
        <_>
          <internalNodes>
            0 -1 106 -7.7871629036962986e-04</internalNodes>
          <leafValues>
            -6.7924958467483521e-01 2.0939542353153229e-01</leafValues></_>
        <_>
          <internalNodes>
            0 -1 290 -6.5145096741616726e-03</internalNodes>
          <leafValues>
            3.9321580529212952e-01 -3.0567276477813721e-01</leafValues></_>
        <_>
          <internalNodes>
            0 -1 543 -3.0222947243601084e-03</internalNodes>
          <leafValues>
            5.5713170766830444e-01 -2.5586545467376709e-01</leafValues></_>
        <_>
          <internalNodes>
            0 -1 156 -1.6157014761120081e-04</internalNodes>
          <leafValues>
            -6.6428285837173462e-01 2.6378747820854187e-01</leafValues></_>
        <_>
          <internalNodes>
            0 -1 91 -8.8675089180469513e-02</internalNodes>
          <leafValues>
            4.6730795502662659e-01 -3.2473656535148621e-01</leafValues></_>
        <_>
          <internalNodes>
            0 -1 591 9.6880114870145917e-04</internalNodes>
          <leafValues>
            1.9299747049808502e-01 -7.1249955892562866e-01</leafValues></_>
        <_>
          <internalNodes>
            0 -1 268 -5.2605557721108198e-04</internalNodes>
          <leafValues>
            -8.6566430330276489e-01 1.2307370454072952e-01</leafValues></_></weakClassifiers></_>
    <!-- stage 4 -->
    <_>
      <maxWeakCount>38</maxWeakCount>
      <stageThreshold>-2.5085818767547607e+00</stageThreshold>
      <weakClassifiers>
        <_>
          <internalNodes>
            0 -1 496 2.1393383212853223e-04</internalNodes>
          <leafValues>
            -8.1741869449615479e-01 9.1149270534515381e-02</leafValues></_>
        <_>
          <internalNodes>
            0 -1 214 1.8348407000303268e-02</internalNodes>
          <leafValues>
            -4.9444693326950073e-01 3.7490478157997131e-01</leafValues></_>
        <_>
          <internalNodes>
            0 -1 52 -3.0430412292480469e-01</internalNodes>
          <leafValues>
            7.3723912239074707e-01 -1.9022153317928314e-01</leafValues></_>
        <_>
          <internalNodes>
            0 -1 228 9.0732017997652292e-04</internalNodes>
          <leafValues>
            -2.8279227018356323e-01 5.1437634229660034e-01</leafValues></_>
        <_>
          <internalNodes>
            0 -1 508 -6.8033020943403244e-04</internalNodes>
          <leafValues>
            3.7317094206809998e-01 -3.3663436770439148e-01</leafValues></_>
        <_>
          <internalNodes>
            0 -1 595 -2.8494927100837231e-03</internalNodes>
          <leafValues>
            -7.8963607549667358e-01 1.6557991504669189e-01</leafValues></_>
        <_>
          <internalNodes>
            0 -1 593 1.0490260319784284e-03</internalNodes>
          <leafValues>
            1.2107235938310623e-01 -8.3230090141296387e-01</leafValues></_>
        <_>
          <internalNodes>
            0 -1 395 7.9058287665247917e-03</internalNodes>
          <leafValues>
            -1.5576255321502686e-01 7.6473701000213623e-01</leafValues></_>
        <_>
          <internalNodes>
            0 -1 124 7.5264461338520050e-03</internalNodes>
          <leafValues>
            2.1267677843570709e-01 -6.9425970315933228e-01</leafValues></_>
        <_>
          <internalNodes>
            0 -1 401 -4.6238291542977095e-04</internalNodes>
          <leafValues>
            4.1662627458572388e-01 -3.1172025203704834e-01</leafValues></_>
        <_>
          <internalNodes>
            0 -1 585 1.0003044008044526e-04</internalNodes>
          <leafValues>
            1.3982817530632019e-01 -6.9304084777832031e-01</leafValues></_>
        <_>
          <internalNodes>
            0 -1 227 1.1911130277439952e-03</internalNodes>
          <leafValues>
            -2.8780934214591980e-01 4.1216358542442322e-01</leafValues></_>
        <_>
          <internalNodes>
            0 -1 219 -2.6574153453111649e-02</internalNodes>
          <leafValues>
            5.9880030155181885e-01 -1.9721749424934387e-01</leafValues></_>
        <_>
          <internalNodes>
            0 -1 220 5.3733304142951965e-02</internalNodes>
          <leafValues>
            -1.4325186610221863e-01 7.1956849098205566e-01</leafValues></_>
        <_>
          <internalNodes>
            0 -1 295 4.2749795829877257e-04</internalNodes>
          <leafValues>
            1.5414813160896301e-01 -8.9764684438705444e-01</leafValues></_>
        <_>
          <internalNodes>
            0 -1 577 -1.0087543632835150e-03</internalNodes>
          <leafValues>
            -8.0114614963531494e-01 1.0164305567741394e-01</leafValues></_>
        <_>
          <internalNodes>
            0 -1 468 -2.8001284226775169e-04</internalNodes>
          <leafValues>
            4.5277228951454163e-01 -2.6128286123275757e-01</leafValues></_>
        <_>
          <internalNodes>
            0 -1 585 -2.2534803429152817e-04</internalNodes>
          <leafValues>
            -6.6702204942703247e-01 1.7469915747642517e-01</leafValues></_>
        <_>
          <internalNodes>
            0 -1 405 -2.5290774647146463e-04</internalNodes>
          <leafValues>
            3.6936846375465393e-01 -2.9366773366928101e-01</leafValues></_>
        <_>
          <internalNodes>
            0 -1 104 8.2786865532398224e-02</internalNodes>
          <leafValues>
            1.1735757440328598e-01 -7.6134681701660156e-01</leafValues></_>
        <_>
          <internalNodes>
            0 -1 75 -6.4487953204661608e-04</internalNodes>
          <leafValues>
            -5.8048969507217407e-01 1.4679875969886780e-01</leafValues></_>
        <_>
          <internalNodes>
            0 -1 233 -1.6591787571087480e-03</internalNodes>
          <leafValues>
            3.5012763738632202e-01 -2.9210236668586731e-01</leafValues></_>
        <_>
          <internalNodes>
            0 -1 434 -3.8983998820185661e-04</internalNodes>
          <leafValues>
            -7.1314138174057007e-01 1.4843584597110748e-01</leafValues></_>
        <_>
          <internalNodes>
            0 -1 410 1.9810295198112726e-03</internalNodes>
          <leafValues>
            9.2857897281646729e-02 -6.6919112205505371e-01</leafValues></_>
        <_>
          <internalNodes>
            0 -1 289 -1.7648202629061416e-05</internalNodes>
          <leafValues>
            3.3778563141822815e-01 -2.6252669095993042e-01</leafValues></_>
        <_>
          <internalNodes>
            0 -1 548 9.1568258358165622e-04</internalNodes>
          <leafValues>
            1.2069617956876755e-01 -7.0738273859024048e-01</leafValues></_>
        <_>
          <internalNodes>
            0 -1 602 -3.8313912227749825e-03</internalNodes>
          <leafValues>
            -7.9280596971511841e-01 7.8150793910026550e-02</leafValues></_>
        <_>
          <internalNodes>
            0 -1 464 1.5559475868940353e-03</internalNodes>
          <leafValues>
            -1.4260870218276978e-01 6.3434058427810669e-01</leafValues></_>
        <_>
          <internalNodes>
            0 -1 123 1.1788364499807358e-02</internalNodes>
          <leafValues>
            1.1851418763399124e-01 -9.4305169582366943e-01</leafValues></_>
        <_>
          <internalNodes>
            0 -1 602 5.9440680779516697e-03</internalNodes>
          <leafValues>
            4.2288087308406830e-02 -9.2378371953964233e-01</leafValues></_>
        <_>
          <internalNodes>
            0 -1 241 -1.4120412990450859e-02</internalNodes>
          <leafValues>
            8.1918686628341675e-01 -1.0180477797985077e-01</leafValues></_>
        <_>
          <internalNodes>
            0 -1 363 6.8571031093597412e-02</internalNodes>
          <leafValues>
            1.0148257762193680e-01 -8.5692185163497925e-01</leafValues></_>
        <_>
          <internalNodes>
            0 -1 600 -8.4765162318944931e-04</internalNodes>
          <leafValues>
            -9.5051091909408569e-01 5.9078991413116455e-02</leafValues></_>
        <_>
          <internalNodes>
            0 -1 284 -1.7423080280423164e-03</internalNodes>
          <leafValues>
            4.9119862914085388e-01 -1.7302173376083374e-01</leafValues></_>
        <_>
          <internalNodes>
            0 -1 386 1.5989067032933235e-03</internalNodes>
          <leafValues>
            1.1483811587095261e-01 -6.2922418117523193e-01</leafValues></_>
        <_>
          <internalNodes>
            0 -1 359 -5.1452233456075191e-03</internalNodes>
          <leafValues>
            6.0454744100570679e-01 -1.2690429389476776e-01</leafValues></_>
        <_>
          <internalNodes>
            0 -1 480 3.1395133119076490e-03</internalNodes>
          <leafValues>
            9.6265032887458801e-02 -8.0918705463409424e-01</leafValues></_>
        <_>
          <internalNodes>
            0 -1 337 -3.2531842589378357e-02</internalNodes>
          <leafValues>
            -8.1799703836441040e-01 5.6200936436653137e-02</leafValues></_></weakClassifiers></_>
    <!-- stage 5 -->
    <_>
      <maxWeakCount>39</maxWeakCount>
      <stageThreshold>-2.3502094745635986e+00</stageThreshold>
      <weakClassifiers>
        <_>
          <internalNodes>
            0 -1 83 -5.4262936115264893e-02</internalNodes>
          <leafValues>
            1.7361110448837280e-01 -7.1428573131561279e-01</leafValues></_>
        <_>
          <internalNodes>
            0 -1 461 -2.2231619805097580e-03</internalNodes>
          <leafValues>
            5.5797809362411499e-01 -3.5327652096748352e-01</leafValues></_>
        <_>
          <internalNodes>
            0 -1 381 -1.3651434332132339e-02</internalNodes>
          <leafValues>
            5.7521897554397583e-01 -2.4978213012218475e-01</leafValues></_>
        <_>
          <internalNodes>
            0 -1 230 -4.7009517438709736e-03</internalNodes>
          <leafValues>
            3.8259074091911316e-01 -3.5155197978019714e-01</leafValues></_>
        <_>
          <internalNodes>
            0 -1 431 1.6185022890567780e-02</internalNodes>
          <leafValues>
            -2.2261451184749603e-01 5.9937733411788940e-01</leafValues></_>
        <_>
          <internalNodes>
            0 -1 515 1.6103032976388931e-02</internalNodes>
          <leafValues>
            -1.3946740329265594e-01 6.0283410549163818e-01</leafValues></_>
        <_>
          <internalNodes>
            0 -1 221 -7.7719136606901884e-04</internalNodes>
          <leafValues>
            4.5708274841308594e-01 -2.1379119157791138e-01</leafValues></_>
        <_>
          <internalNodes>
            0 -1 528 -3.3783258404582739e-03</internalNodes>
          <leafValues>
            7.1521693468093872e-01 -1.2579199671745300e-01</leafValues></_>
        <_>
          <internalNodes>
            0 -1 413 -3.3942607697099447e-03</internalNodes>
          <leafValues>
            4.9198108911514282e-01 -1.8435232341289520e-01</leafValues></_>
        <_>
          <internalNodes>
            0 -1 0 -3.1888914236333221e-05</internalNodes>
          <leafValues>
            -4.8772996664047241e-01 2.9440131783485413e-01</leafValues></_>
        <_>
          <internalNodes>
            0 -1 447 -6.7578047513961792e-02</internalNodes>
          <leafValues>
            6.7525976896286011e-01 -2.0133425295352936e-01</leafValues></_>
        <_>
          <internalNodes>
            0 -1 598 -6.5736932447180152e-04</internalNodes>
          <leafValues>
            -7.7646523714065552e-01 1.3338503241539001e-01</leafValues></_>
        <_>
          <internalNodes>
            0 -1 67 -2.3229196667671204e-02</internalNodes>
          <leafValues>
            5.9840589761734009e-01 -1.6866153478622437e-01</leafValues></_>
        <_>
          <internalNodes>
            0 -1 471 3.6698833107948303e-02</internalNodes>
          <leafValues>
            -1.8107299506664276e-01 5.3521585464477539e-01</leafValues></_>
        <_>
          <internalNodes>
            0 -1 193 -1.0330403223633766e-02</internalNodes>
          <leafValues>
            -7.3012536764144897e-01 1.2443186342716217e-01</leafValues></_>
        <_>
          <internalNodes>
            0 -1 89 1.9658243283629417e-02</internalNodes>
          <leafValues>
            8.2626141607761383e-02 -8.1165778636932373e-01</leafValues></_>
        <_>
          <internalNodes>
            0 -1 253 -8.2846984267234802e-02</internalNodes>
          <leafValues>
            -7.5243878364562988e-01 9.4595953822135925e-02</leafValues></_>
        <_>
          <internalNodes>
            0 -1 400 -1.1875627096742392e-03</internalNodes>
          <leafValues>
            3.8004463911056519e-01 -2.3475140333175659e-01</leafValues></_>
        <_>
          <internalNodes>
            0 -1 592 -1.9482546485960484e-03</internalNodes>
          <leafValues>
            -9.3506026268005371e-01 9.4255968928337097e-02</leafValues></_>
        <_>
          <internalNodes>
            0 -1 582 1.9659013196360320e-04</internalNodes>
          <leafValues>
            7.1777105331420898e-02 -7.6382893323898315e-01</leafValues></_>
        <_>
          <internalNodes>
            0 -1 327 1.4895100612193346e-03</internalNodes>
          <leafValues>
            -1.5440763533115387e-01 6.0008329153060913e-01</leafValues></_>
        <_>
          <internalNodes>
            0 -1 120 4.3662905227392912e-05</internalNodes>
          <leafValues>
            1.8915286660194397e-01 -4.5719879865646362e-01</leafValues></_>
        <_>
          <internalNodes>
            0 -1 541 -1.7419587820768356e-02</internalNodes>
          <leafValues>
            6.6528362035751343e-01 -1.1228083074092865e-01</leafValues></_>
        <_>
          <internalNodes>
            0 -1 87 2.5826827622950077e-03</internalNodes>
          <leafValues>
            8.7190516293048859e-02 -1.</leafValues></_>
        <_>
          <internalNodes>
            0 -1 256 -1.2301702797412872e-01</internalNodes>
          <leafValues>
            5.3874361515045166e-01 -1.4582230150699615e-01</leafValues></_>
        <_>
          <internalNodes>
            0 -1 323 2.3030838929116726e-03</internalNodes>
          <leafValues>
            -1.5678954124450684e-01 5.0045782327651978e-01</leafValues></_>
        <_>
          <internalNodes>
            0 -1 10 -7.4518939072731882e-05</internalNodes>
          <leafValues>
            -3.7678891420364380e-01 2.2733524441719055e-01</leafValues></_>
        <_>
          <internalNodes>
            0 -1 597 1.0606762953102589e-04</internalNodes>
          <leafValues>
            1.1769501864910126e-01 -6.2794154882431030e-01</leafValues></_>
        <_>
          <internalNodes>
            0 -1 553 3.2382227946072817e-03</internalNodes>
          <leafValues>
            -1.9055195152759552e-01 4.1064870357513428e-01</leafValues></_>
        <_>
          <internalNodes>
            0 -1 479 4.4685028115054592e-05</internalNodes>
          <leafValues>
            1.5957726538181305e-01 -4.1535121202468872e-01</leafValues></_>
        <_>
          <internalNodes>
            0 -1 275 -5.1220841705799103e-02</internalNodes>
          <leafValues>
            8.4098309278488159e-01 -9.7097799181938171e-02</leafValues></_>
        <_>
          <internalNodes>
            0 -1 309 7.4353616219013929e-04</internalNodes>
          <leafValues>
            -8.8082157075405121e-02 6.9609969854354858e-01</leafValues></_>
        <_>
          <internalNodes>
            0 -1 562 4.1547609725967050e-05</internalNodes>
          <leafValues>
            1.7007215321063995e-01 -4.6165412664413452e-01</leafValues></_>
        <_>
          <internalNodes>
            0 -1 142 -6.4905611798167229e-03</internalNodes>
          <leafValues>
            7.1970337629318237e-01 -1.0502143949270248e-01</leafValues></_>
        <_>
          <internalNodes>
            0 -1 480 3.6860378459095955e-03</internalNodes>
          <leafValues>
            1.0756547003984451e-01 -7.2016620635986328e-01</leafValues></_>
        <_>
          <internalNodes>
            0 -1 534 -3.6482429131865501e-03</internalNodes>
          <leafValues>
            4.7358846664428711e-01 -1.4537538588047028e-01</leafValues></_>
        <_>
          <internalNodes>
            0 -1 569 4.1237166442442685e-05</internalNodes>
          <leafValues>
            1.5027776360511780e-01 -4.6675205230712891e-01</leafValues></_>
        <_>
          <internalNodes>
            0 -1 467 -2.0348606631159782e-03</internalNodes>
          <leafValues>
            7.8813838958740234e-01 -6.6361822187900543e-02</leafValues></_>
        <_>
          <internalNodes>
            0 -1 222 -8.9060951722785830e-05</internalNodes>
          <leafValues>
            -4.8213317990303040e-01 1.4797565340995789e-01</leafValues></_></weakClassifiers></_>
    <!-- stage 6 -->
    <_>
      <maxWeakCount>100</maxWeakCount>
      <stageThreshold>-2.8010644912719727e+00</stageThreshold>
      <weakClassifiers>
        <_>
          <internalNodes>
            0 -1 317 -5.8459551073610783e-03</internalNodes>
          <leafValues>
            3.6395758390426636e-01 -8.0069929361343384e-01</leafValues></_>
        <_>
          <internalNodes>
            0 -1 272 2.4598827585577965e-03</internalNodes>
          <leafValues>
            -4.6037703752517700e-01 6.7483443021774292e-01</leafValues></_>
        <_>
          <internalNodes>
            0 -1 184 -1.9849180243909359e-03</internalNodes>
          <leafValues>
            5.0079470872879028e-01 -4.8172986507415771e-01</leafValues></_>
        <_>
          <internalNodes>
            0 -1 218 2.5104801170527935e-03</internalNodes>
          <leafValues>
            -3.5333922505378723e-01 4.7963890433311462e-01</leafValues></_>
        <_>
          <internalNodes>
            0 -1 474 -2.1910631039645523e-04</internalNodes>
          <leafValues>
            5.7220989465713501e-01 -2.2438833117485046e-01</leafValues></_>
        <_>
          <internalNodes>
            0 -1 469 -6.0764979571104050e-04</internalNodes>
          <leafValues>
            5.4611092805862427e-01 -2.0400874316692352e-01</leafValues></_>
        <_>
          <internalNodes>
            0 -1 372 -2.5503942742943764e-04</internalNodes>
          <leafValues>
            5.6490254402160645e-01 -1.6131535172462463e-01</leafValues></_>
        <_>
          <internalNodes>
            0 -1 239 -8.8293477892875671e-02</internalNodes>
          <leafValues>
            5.8080464601516724e-01 -1.5032713115215302e-01</leafValues></_>
        <_>
          <internalNodes>
            0 -1 575 -3.6323703825473785e-03</internalNodes>
          <leafValues>
            5.8003562688827515e-01 -1.3549338281154633e-01</leafValues></_>
        <_>
          <internalNodes>
            0 -1 127 -1.2806756421923637e-04</internalNodes>
          <leafValues>
            -6.2718641757965088e-01 1.5298119187355042e-01</leafValues></_>
        <_>
          <internalNodes>
            0 -1 503 -1.0899906978011131e-02</internalNodes>
          <leafValues>
            4.7362956404685974e-01 -1.8040575087070465e-01</leafValues></_>
        <_>
          <internalNodes>
            0 -1 481 5.3699808195233345e-03</internalNodes>
          <leafValues>
            1.4608617126941681e-01 -5.8103525638580322e-01</leafValues></_>
        <_>
          <internalNodes>
            0 -1 433 -5.4001463577151299e-03</internalNodes>
          <leafValues>
            6.9133144617080688e-01 -1.5628810226917267e-01</leafValues></_>
        <_>
          <internalNodes>
            0 -1 132 -4.9303770065307617e-02</internalNodes>
          <leafValues>
            -5.2888560295104980e-01 1.8491895496845245e-01</leafValues></_>
        <_>
          <internalNodes>
            0 -1 146 -4.4492855668067932e-03</internalNodes>
          <leafValues>
            3.7308448553085327e-01 -1.9472534954547882e-01</leafValues></_>
        <_>
          <internalNodes>
            0 -1 599 -1.0582884715404361e-04</internalNodes>
          <leafValues>
            -3.9451012015342712e-01 1.8556495010852814e-01</leafValues></_>
        <_>
          <internalNodes>
            0 -1 432 4.8365624388679862e-04</internalNodes>
          <leafValues>
            -1.8950773775577545e-01 4.2703452706336975e-01</leafValues></_>
        <_>
          <internalNodes>
            0 -1 361 -1.7837707698345184e-01</internalNodes>
          <leafValues>
            -6.7457556724548340e-01 1.3427488505840302e-01</leafValues></_>
        <_>
          <internalNodes>
            0 -1 297 -9.8415398970246315e-03</internalNodes>
          <leafValues>
            -9.2112076282501221e-01 7.0643343031406403e-02</leafValues></_>
        <_>
          <internalNodes>
            0 -1 492 -9.8615500610321760e-04</internalNodes>
          <leafValues>
            4.1457292437553406e-01 -1.7621281743049622e-01</leafValues></_>
        <_>
          <internalNodes>
            0 -1 460 -4.4498243369162083e-03</internalNodes>
          <leafValues>
            -6.9925802946090698e-01 8.8688500225543976e-02</leafValues></_>
        <_>
          <internalNodes>
            0 -1 482 2.9610106139443815e-04</internalNodes>
          <leafValues>
            -1.5089009702205658e-01 4.1866582632064819e-01</leafValues></_>
        <_>
          <internalNodes>
            0 -1 60 -4.7765999624971300e-05</internalNodes>
          <leafValues>
            -4.5450055599212646e-01 1.3951633870601654e-01</leafValues></_>
        <_>
          <internalNodes>
            0 -1 313 -1.0846395045518875e-02</internalNodes>
          <leafValues>
            4.7340592741966248e-01 -1.4481642842292786e-01</leafValues></_>
        <_>
          <internalNodes>
            0 -1 417 2.1034427918493748e-03</internalNodes>
          <leafValues>
            1.7052689194679260e-01 -4.7059953212738037e-01</leafValues></_>
        <_>
          <internalNodes>
            0 -1 206 -1.5303069725632668e-02</internalNodes>
          <leafValues>
            -7.0600718259811401e-01 8.6875930428504944e-02</leafValues></_>
        <_>
          <internalNodes>
            0 -1 310 1.0681862477213144e-03</internalNodes>
          <leafValues>
            -1.4240753650665283e-01 5.5055588483810425e-01</leafValues></_>
        <_>
          <internalNodes>
            0 -1 332 7.7104404568672180e-02</internalNodes>
          <leafValues>
            8.7247110903263092e-02 -8.7314265966415405e-01</leafValues></_>
        <_>
          <internalNodes>
            0 -1 315 6.6904569976031780e-03</internalNodes>
          <leafValues>
            4.0603280067443848e-02 -1.</leafValues></_>
        <_>
          <internalNodes>
            0 -1 459 -7.8032154124230146e-04</internalNodes>
          <leafValues>
            6.8665403127670288e-01 -9.2826753854751587e-02</leafValues></_>
        <_>
          <internalNodes>
            0 -1 153 9.0449757874011993e-02</internalNodes>
          <leafValues>
            7.3022387921810150e-02 -1.</leafValues></_>
        <_>
          <internalNodes>
            0 -1 579 6.4847879111766815e-03</internalNodes>
          <leafValues>
            2.9671732336282730e-02 -8.5582077503204346e-01</leafValues></_>
        <_>
          <internalNodes>
            0 -1 506 -2.7483876328915358e-03</internalNodes>
          <leafValues>
            5.6824189424514771e-01 -9.2115692794322968e-02</leafValues></_>
        <_>
          <internalNodes>
            0 -1 144 -4.7384202480316162e-02</internalNodes>
          <leafValues>
            -5.8018749952316284e-01 9.3255177140235901e-02</leafValues></_>
        <_>
          <internalNodes>
            0 -1 200 -1.1317559331655502e-01</internalNodes>
          <leafValues>
            8.7980633974075317e-01 -6.6702455282211304e-02</leafValues></_>
        <_>
          <internalNodes>
            0 -1 198 -1.8621802330017090e-01</internalNodes>
          <leafValues>
            -9.6428650617599487e-01 5.9578139334917068e-02</leafValues></_>
        <_>
          <internalNodes>
            0 -1 466 -4.3107762932777405e-02</internalNodes>
          <leafValues>
            -7.7172130346298218e-01 3.9374474436044693e-02</leafValues></_>
        <_>
          <internalNodes>
            0 -1 352 -4.7153636114671826e-04</internalNodes>
          <leafValues>
            4.7193977236747742e-01 -1.2340383231639862e-01</leafValues></_>
        <_>
          <internalNodes>
            0 -1 150 1.4735984223079868e-05</internalNodes>
          <leafValues>
            1.2852674722671509e-01 -3.5967069864273071e-01</leafValues></_>
        <_>
          <internalNodes>
            0 -1 457 3.0580220482079312e-05</internalNodes>
          <leafValues>
            -1.4749446511268616e-01 3.6611831188201904e-01</leafValues></_>
        <_>
          <internalNodes>
            0 -1 559 4.7048591077327728e-03</internalNodes>
          <leafValues>
            6.8799659609794617e-02 -8.0682319402694702e-01</leafValues></_>
        <_>
          <internalNodes>
            0 -1 594 1.0051464414573275e-05</internalNodes>
          <leafValues>
            6.7586287856101990e-02 -5.0507473945617676e-01</leafValues></_>
        <_>
          <internalNodes>
            0 -1 360 1.3194857165217400e-03</internalNodes>
          <leafValues>
            -8.2160152494907379e-02 5.3231459856033325e-01</leafValues></_>
        <_>
          <internalNodes>
            0 -1 191 -2.8447550721466541e-03</internalNodes>
          <leafValues>
            -7.3823082447052002e-01 5.5472493171691895e-02</leafValues></_>
        <_>
          <internalNodes>
            0 -1 525 -4.9722497351467609e-04</internalNodes>
          <leafValues>
            5.9119158983230591e-01 -7.2243623435497284e-02</leafValues></_>
        <_>
          <internalNodes>
            0 -1 6 -1.2999494174437132e-05</internalNodes>
          <leafValues>
            -4.9908527731895447e-01 8.8384501636028290e-02</leafValues></_>
        <_>
          <internalNodes>
            0 -1 568 -1.7907599685713649e-03</internalNodes>
          <leafValues>
            5.6278222799301147e-01 -7.5193196535110474e-02</leafValues></_>
        <_>
          <internalNodes>
            0 -1 502 -4.6414979733526707e-03</internalNodes>
          <leafValues>
            -8.9740443229675293e-01 4.3243676424026489e-02</leafValues></_>
        <_>
          <internalNodes>
            0 -1 510 7.3537987191230059e-04</internalNodes>
          <leafValues>
            -6.8792961537837982e-02 5.5990499258041382e-01</leafValues></_>
        <_>
          <internalNodes>
            0 -1 215 -6.8523106165230274e-05</internalNodes>
          <leafValues>
            -4.7129756212234497e-01 9.3565806746482849e-02</leafValues></_>
        <_>
          <internalNodes>
            0 -1 306 4.1984446579590440e-04</internalNodes>
          <leafValues>
            -5.4605282843112946e-02 5.4162138700485229e-01</leafValues></_>
        <_>
          <internalNodes>
            0 -1 109 -3.5557900555431843e-03</internalNodes>
          <leafValues>
            -8.8800990581512451e-01 5.0868649035692215e-02</leafValues></_>
        <_>
          <internalNodes>
            0 -1 266 1.3786207418888807e-03</internalNodes>
          <leafValues>
            -5.7886432856321335e-02 6.3235610723495483e-01</leafValues></_>
        <_>
          <internalNodes>
            0 -1 203 -2.6468649506568909e-02</internalNodes>
          <leafValues>
            -5.4763114452362061e-01 6.6635660827159882e-02</leafValues></_>
        <_>
          <internalNodes>
            0 -1 454 2.4807170848362148e-04</internalNodes>
          <leafValues>
            -6.6966660320758820e-02 4.8915588855743408e-01</leafValues></_>
        <_>
          <internalNodes>
            0 -1 258 -1.1113766580820084e-02</internalNodes>
          <leafValues>
            -8.5736066102981567e-01 3.7528362125158310e-02</leafValues></_>
        <_>
          <internalNodes>
            0 -1 129 1.1147714406251907e-01</internalNodes>
          <leafValues>
            5.2039004862308502e-02 -6.9583648443222046e-01</leafValues></_>
        <_>
          <internalNodes>
            0 -1 527 5.8383098803460598e-04</internalNodes>
          <leafValues>
            -5.0342753529548645e-02 6.9084918498992920e-01</leafValues></_>
        <_>
          <internalNodes>
            0 -1 237 -1.7733756452798843e-02</internalNodes>
          <leafValues>
            -7.1698850393295288e-01 3.5043504089117050e-02</leafValues></_>
        <_>
          <internalNodes>
            0 -1 291 -2.0542792044579983e-03</internalNodes>
          <leafValues>
            6.0568302869796753e-01 -5.6428428739309311e-02</leafValues></_>
        <_>
          <internalNodes>
            0 -1 596 -3.6275319289416075e-03</internalNodes>
          <leafValues>
            -6.4936023950576782e-01 4.0577959269285202e-02</leafValues></_>
        <_>
          <internalNodes>
            0 -1 358 -3.0424797441810369e-03</internalNodes>
          <leafValues>
            5.4615205526351929e-01 -5.2957475185394287e-02</leafValues></_>
        <_>
          <internalNodes>
            0 -1 242 -6.3954442739486694e-03</internalNodes>
          <leafValues>
            -6.4815187454223633e-01 4.5372750610113144e-02</leafValues></_>
        <_>
          <internalNodes>
            0 -1 339 8.0087612150236964e-04</internalNodes>
          <leafValues>
            -3.1603023409843445e-02 6.8491792678833008e-01</leafValues></_>
        <_>
          <internalNodes>
            0 -1 50 1.9726496189832687e-02</internalNodes>
          <leafValues>
            4.1478373110294342e-02 -5.8799624443054199e-01</leafValues></_>
        <_>
          <internalNodes>
            0 -1 232 -8.2223005592823029e-03</internalNodes>
          <leafValues>
            7.4204528331756592e-01 -2.6327144354581833e-02</leafValues></_>
        <_>
          <internalNodes>
            0 -1 375 3.9717862382531166e-03</internalNodes>
          <leafValues>
            2.2410206496715546e-02 -8.3521604537963867e-01</leafValues></_>
        <_>
          <internalNodes>
            0 -1 248 2.5718582328408957e-03</internalNodes>
          <leafValues>
            -3.3062785863876343e-02 7.2332638502120972e-01</leafValues></_>
        <_>
          <internalNodes>
            0 -1 298 -1.8816102296113968e-02</internalNodes>
          <leafValues>
            -7.3800104856491089e-01 3.4733120352029800e-02</leafValues></_>
        <_>
          <internalNodes>
            0 -1 449 1.2858460843563080e-01</internalNodes>
          <leafValues>
            -2.0310295745730400e-02 8.8421767950057983e-01</leafValues></_>
        <_>
          <internalNodes>
            0 -1 549 1.0582666436675936e-04</internalNodes>
          <leafValues>
            2.9572406783699989e-02 -5.8068466186523438e-01</leafValues></_>
        <_>
          <internalNodes>
            0 -1 378 1.1235012789256871e-04</internalNodes>
          <leafValues>
            -3.0329726636409760e-02 6.1933380365371704e-01</leafValues></_>
        <_>
          <internalNodes>
            0 -1 147 3.3623455092310905e-03</internalNodes>
          <leafValues>
            2.9909610748291016e-02 -6.6805571317672729e-01</leafValues></_>
        <_>
          <internalNodes>
            0 -1 563 1.0521060321480036e-03</internalNodes>
          <leafValues>
            -2.2263620048761368e-02 6.4303851127624512e-01</leafValues></_>
        <_>
          <internalNodes>
            0 -1 576 4.1207135654985905e-04</internalNodes>
          <leafValues>
            2.0763086155056953e-02 -9.2201751470565796e-01</leafValues></_>
        <_>
          <internalNodes>
            0 -1 333 -1.1427884455770254e-03</internalNodes>
          <leafValues>
            7.1962904930114746e-01 -2.4028399959206581e-02</leafValues></_>
        <_>
          <internalNodes>
            0 -1 229 -2.3188384147942998e-05</internalNodes>
          <leafValues>
            -5.7712787389755249e-01 3.3778984099626541e-02</leafValues></_>
        <_>
          <internalNodes>
            0 -1 537 5.1119765266776085e-03</internalNodes>
          <leafValues>
            -2.0659342408180237e-02 6.9316154718399048e-01</leafValues></_>
        <_>
          <internalNodes>
            0 -1 551 -6.5536433830857277e-03</internalNodes>
          <leafValues>
            -7.7319949865341187e-01 1.4719458296895027e-02</leafValues></_>
        <_>
          <internalNodes>
            0 -1 137 -3.4054465591907501e-02</internalNodes>
          <leafValues>
            7.4938458204269409e-01 -1.7656266689300537e-02</leafValues></_>
        <_>
          <internalNodes>
            0 -1 538 9.3898235354572535e-04</internalNodes>
          <leafValues>
            2.7024626731872559e-02 -5.8599978685379028e-01</leafValues></_>
        <_>
          <internalNodes>
            0 -1 235 1.9804690964519978e-04</internalNodes>
          <leafValues>
            -1.9488824531435966e-02 7.2803777456283569e-01</leafValues></_>
        <_>
          <internalNodes>
            0 -1 199 1.3223974747234024e-05</internalNodes>
          <leafValues>
            6.1869244091212749e-03 -7.5335401296615601e-01</leafValues></_>
        <_>
          <internalNodes>
            0 -1 547 -3.0395991052500904e-04</internalNodes>
          <leafValues>
            7.0867061614990234e-01 -9.8224496468901634e-03</leafValues></_>
        <_>
          <internalNodes>
            0 -1 49 2.0753233693540096e-03</internalNodes>
          <leafValues>
            5.2403146401047707e-03 -8.1400293111801147e-01</leafValues></_>
        <_>
          <internalNodes>
            0 -1 55 7.9793040640652180e-04</internalNodes>
          <leafValues>
            -1.0129140689969063e-02 7.2433626651763916e-01</leafValues></_>
        <_>
          <internalNodes>
            0 -1 331 3.9671926060691476e-05</internalNodes>
          <leafValues>
            1.4026557095348835e-02 -7.5686800479888916e-01</leafValues></_>
        <_>
          <internalNodes>
            0 -1 394 1.0760756209492683e-02</internalNodes>
          <leafValues>
            -1.3309741392731667e-02 7.8274732828140259e-01</leafValues></_>
        <_>
          <internalNodes>
            0 -1 561 1.8577538430690765e-02</internalNodes>
          <leafValues>
            9.3803657218813896e-03 -9.0795814990997314e-01</leafValues></_>
        <_>
          <internalNodes>
            0 -1 440 3.8373144343495369e-03</internalNodes>
          <leafValues>
            -8.2059847190976143e-03 8.0236417055130005e-01</leafValues></_>
        <_>
          <internalNodes>
            0 -1 96 7.8532990301027894e-05</internalNodes>
          <leafValues>
            1.2450710870325565e-02 -8.4776258468627930e-01</leafValues></_>
        <_>
          <internalNodes>
            0 -1 96 5.7645160268293694e-05</internalNodes>
          <leafValues>
            -7.1824286133050919e-03 8.5072988271713257e-01</leafValues></_>
        <_>
          <internalNodes>
            0 -1 96 1.3316867807589006e-05</internalNodes>
          <leafValues>
            7.3469080962240696e-03 -8.6065787076950073e-01</leafValues></_>
        <_>
          <internalNodes>
            0 -1 96 1.6228645108640194e-05</internalNodes>
          <leafValues>
            -5.1290830597281456e-03 8.6615067720413208e-01</leafValues></_>
        <_>
          <internalNodes>
            0 -1 96 1.3316867807589006e-05</internalNodes>
          <leafValues>
            5.1291701383888721e-03 -8.6207526922225952e-01</leafValues></_>
        <_>
          <internalNodes>
            0 -1 96 1.6228645108640194e-05</internalNodes>
          <leafValues>
            -5.1291701383888721e-03 8.6512911319732666e-01</leafValues></_>
        <_>
          <internalNodes>
            0 -1 96 1.3316867807589006e-05</internalNodes>
          <leafValues>
            5.1291701383888721e-03 -8.6285752058029175e-01</leafValues></_>
        <_>
          <internalNodes>
            0 -1 96 1.6228645108640194e-05</internalNodes>
          <leafValues>
            -5.1291701383888721e-03 8.6455655097961426e-01</leafValues></_>
        <_>
          <internalNodes>
            0 -1 96 1.3316867807589006e-05</internalNodes>
          <leafValues>
            5.1291701383888721e-03 -8.6329096555709839e-01</leafValues></_>
        <_>
          <internalNodes>
            0 -1 96 1.6228645108640194e-05</internalNodes>
          <leafValues>
            -5.1291701383888721e-03 8.6423659324645996e-01</leafValues></_></weakClassifiers></_>
    <!-- stage 7 -->
    <_>
      <maxWeakCount>100</maxWeakCount>
      <stageThreshold>-2.9580831527709961e+00</stageThreshold>
      <weakClassifiers>
        <_>
          <internalNodes>
            0 -1 496 1.1655910202534869e-04</internalNodes>
          <leafValues>
            -8.5853660106658936e-01 7.2083336114883423e-01</leafValues></_>
        <_>
          <internalNodes>
            0 -1 303 -6.4073254179675132e-05</internalNodes>
          <leafValues>
            5.5313569307327271e-01 -7.0859974622726440e-01</leafValues></_>
        <_>
          <internalNodes>
            0 -1 536 -2.0659789443016052e-03</internalNodes>
          <leafValues>
            8.4167361259460449e-01 -3.8772055506706238e-01</leafValues></_>
        <_>
          <internalNodes>
            0 -1 263 -3.7433095712913200e-05</internalNodes>
          <leafValues>
            5.7683980464935303e-01 -4.0686550736427307e-01</leafValues></_>
        <_>
          <internalNodes>
            0 -1 186 2.3452101740986109e-03</internalNodes>
          <leafValues>
            -2.2295171022415161e-01 8.1229192018508911e-01</leafValues></_>
        <_>
          <internalNodes>
            0 -1 423 -5.5446759797632694e-03</internalNodes>
          <leafValues>
            8.5913646221160889e-01 -1.5643882751464844e-01</leafValues></_>
        <_>
          <internalNodes>
            0 -1 357 -3.2928851433098316e-03</internalNodes>
          <leafValues>
            7.5292897224426270e-01 -1.6010636091232300e-01</leafValues></_>
        <_>
          <internalNodes>
            0 -1 194 4.5884950086474419e-03</internalNodes>
          <leafValues>
            -1.0658483952283859e-01 9.1672164201736450e-01</leafValues></_>
        <_>
          <internalNodes>
            0 -1 270 6.9985976442694664e-03</internalNodes>
          <leafValues>
            1.8170477449893951e-01 -8.2037311792373657e-01</leafValues></_>
        <_>
          <internalNodes>
            0 -1 261 -1.8013592343777418e-03</internalNodes>
          <leafValues>
            6.0185712575912476e-01 -2.0340263843536377e-01</leafValues></_>
        <_>
          <internalNodes>
            0 -1 115 -4.8278912901878357e-02</internalNodes>
          <leafValues>
            -6.6109549999237061e-01 1.5832757949829102e-01</leafValues></_>
        <_>
          <internalNodes>
            0 -1 282 3.7918910384178162e-03</internalNodes>
          <leafValues>
            -1.2890365719795227e-01 8.8782626390457153e-01</leafValues></_>
        <_>
          <internalNodes>
            0 -1 286 -3.7640696391463280e-03</internalNodes>
          <leafValues>
            6.1845505237579346e-01 -1.1866857111454010e-01</leafValues></_>
        <_>
          <internalNodes>
            0 -1 112 -3.0636304290965199e-04</internalNodes>
          <leafValues>
            -6.0607290267944336e-01 1.8211039900779724e-01</leafValues></_>
        <_>
          <internalNodes>
            0 -1 121 5.0503397360444069e-03</internalNodes>
          <leafValues>
            7.4148111045360565e-02 -9.2007392644882202e-01</leafValues></_>
        <_>
          <internalNodes>
            0 -1 540 2.6891021989285946e-03</internalNodes>
          <leafValues>
            -1.7014597356319427e-01 6.0727423429489136e-01</leafValues></_>
        <_>
          <internalNodes>
            0 -1 185 1.9677062518894672e-03</internalNodes>
          <leafValues>
            1.2661552429199219e-01 -6.9201076030731201e-01</leafValues></_>
        <_>
          <internalNodes>
            0 -1 93 -4.1455533355474472e-03</internalNodes>
          <leafValues>
            7.3796975612640381e-01 -1.2627288699150085e-01</leafValues></_>
        <_>
          <internalNodes>
            0 -1 604 -3.5149250179529190e-03</internalNodes>
          <leafValues>
            -7.7106249332427979e-01 1.0054031759500504e-01</leafValues></_>
        <_>
          <internalNodes>
            0 -1 473 -7.0402177516371012e-04</internalNodes>
          <leafValues>
            6.0058861970901489e-01 -1.2391936033964157e-01</leafValues></_>
        <_>
          <internalNodes>
            0 -1 11 1.9439258903730661e-04</internalNodes>
          <leafValues>
            1.1971759051084518e-01 -6.1268132925033569e-01</leafValues></_>
        <_>
          <internalNodes>
            0 -1 164 -1.9988076761364937e-02</internalNodes>
          <leafValues>
            8.3788722753524780e-01 -8.9494816958904266e-02</leafValues></_>
        <_>
          <internalNodes>
            0 -1 588 2.3285745555767789e-05</internalNodes>
          <leafValues>
            1.1390110105276108e-01 -5.1013118028640747e-01</leafValues></_>
        <_>
          <internalNodes>
            0 -1 348 -5.0734716933220625e-04</internalNodes>
          <leafValues>
            6.9518768787384033e-01 -9.4942688941955566e-02</leafValues></_>
        <_>
          <internalNodes>
            0 -1 293 -3.4195836633443832e-02</internalNodes>
          <leafValues>
            7.1219271421432495e-01 -6.1666458845138550e-02</leafValues></_>
        <_>
          <internalNodes>
            0 -1 103 2.9973534401506186e-04</internalNodes>
          <leafValues>
            1.1996983736753464e-01 -5.4752510786056519e-01</leafValues></_>
        <_>
          <internalNodes>
            0 -1 202 -1.0412714909762144e-03</internalNodes>
          <leafValues>
            7.3403042554855347e-01 -6.2486179172992706e-02</leafValues></_>
        <_>
          <internalNodes>
            0 -1 426 -9.1481034178286791e-04</internalNodes>
          <leafValues>
            -5.7308030128479004e-01 9.0529941022396088e-02</leafValues></_>
        <_>
          <internalNodes>
            0 -1 174 -9.1650690883398056e-03</internalNodes>
          <leafValues>
            6.2125378847122192e-01 -7.0630714297294617e-02</leafValues></_>
        <_>
          <internalNodes>
            0 -1 353 -1.6176551580429077e-02</internalNodes>
          <leafValues>
            -1. 4.5595820993185043e-02</leafValues></_>
        <_>
          <internalNodes>
            0 -1 469 -1.0549331782385707e-03</internalNodes>
          <leafValues>
            8.0449038743972778e-01 -5.5691782385110855e-02</leafValues></_>
        <_>
          <internalNodes>
            0 -1 355 -5.7271332480013371e-04</internalNodes>
          <leafValues>
            -8.3341300487518311e-01 6.2053050845861435e-02</leafValues></_>
        <_>
          <internalNodes>
            0 -1 81 3.3992130309343338e-02</internalNodes>
          <leafValues>
            -3.8046598434448242e-02 8.1860119104385376e-01</leafValues></_>
        <_>
          <internalNodes>
            0 -1 287 -1.1348073370754719e-02</internalNodes>
          <leafValues>
            -8.9052486419677734e-01 4.2223002761602402e-02</leafValues></_>
        <_>
          <internalNodes>
            0 -1 201 -4.5004925131797791e-01</internalNodes>
          <leafValues>
            8.8997358083724976e-01 -3.2492142170667648e-02</leafValues></_>
        <_>
          <internalNodes>
            0 -1 573 -1.1586879845708609e-03</internalNodes>
          <leafValues>
            7.6646095514297485e-01 -3.5278752446174622e-02</leafValues></_>
        <_>
          <internalNodes>
            0 -1 296 1.2711089766526129e-05</internalNodes>
          <leafValues>
            5.2284196019172668e-02 -7.9317373037338257e-01</leafValues></_>
        <_>
          <internalNodes>
            0 -1 589 2.0975261577405035e-04</internalNodes>
          <leafValues>
            -2.6756290346384048e-02 6.8719410896301270e-01</leafValues></_>
        <_>
          <internalNodes>
            0 -1 95 8.9705543359741569e-05</internalNodes>
          <leafValues>
            3.3050835132598877e-02 -7.0890998840332031e-01</leafValues></_>
        <_>
          <internalNodes>
            0 -1 370 -1.6206738655455410e-04</internalNodes>
          <leafValues>
            6.4559710025787354e-01 -3.4062329679727554e-02</leafValues></_>
        <_>
          <internalNodes>
            0 -1 586 -2.3459186195395887e-04</internalNodes>
          <leafValues>
            -9.3204683065414429e-01 2.1373162046074867e-02</leafValues></_>
        <_>
          <internalNodes>
            0 -1 279 1.8484303727746010e-03</internalNodes>
          <leafValues>
            -2.1636202931404114e-02 7.5516277551651001e-01</leafValues></_>
        <_>
          <internalNodes>
            0 -1 484 5.2414645324461162e-05</internalNodes>
          <leafValues>
            2.5430159643292427e-02 -8.0720084905624390e-01</leafValues></_>
        <_>
          <internalNodes>
            0 -1 512 1.1174788232892752e-03</internalNodes>
          <leafValues>
            -1.0819823481142521e-02 7.5769448280334473e-01</leafValues></_>
        <_>
          <internalNodes>
            0 -1 498 2.8039298485964537e-03</internalNodes>
          <leafValues>
            1.1294845491647720e-02 -9.3112504482269287e-01</leafValues></_>
        <_>
          <internalNodes>
            0 -1 500 9.6305622719228268e-04</internalNodes>
          <leafValues>
            -1.2281541712582111e-02 8.2408356666564941e-01</leafValues></_>
        <_>
          <internalNodes>
            0 -1 439 -2.2250306792557240e-03</internalNodes>
          <leafValues>
            -8.7861245870590210e-01 1.1324754916131496e-02</leafValues></_>
        <_>
          <internalNodes>
            0 -1 391 -3.1032783444970846e-03</internalNodes>
          <leafValues>
            8.1247133016586304e-01 -1.0597005486488342e-02</leafValues></_>
        <_>
          <internalNodes>
            0 -1 188 7.9079449642449617e-04</internalNodes>
          <leafValues>
            6.6756485030055046e-03 -9.2442107200622559e-01</leafValues></_>
        <_>
          <internalNodes>
            0 -1 213 1.9831596873700619e-03</internalNodes>
          <leafValues>
            -3.8353784475475550e-03 8.7103354930877686e-01</leafValues></_>
        <_>
          <internalNodes>
            0 -1 513 3.5450260620564222e-03</internalNodes>
          <leafValues>
            7.5198491103947163e-03 -1.</leafValues></_>
        <_>
          <internalNodes>
            0 -1 532 3.8846151437610388e-04</internalNodes>
          <leafValues>
            -6.9360313937067986e-03 9.0657538175582886e-01</leafValues></_>
        <_>
          <internalNodes>
            0 -1 170 -4.5171957463026047e-02</internalNodes>
          <leafValues>
            -1. 9.4429161399602890e-03</leafValues></_>
        <_>
          <internalNodes>
            0 -1 181 -3.0541128944605589e-04</internalNodes>
          <leafValues>
            8.5102629661560059e-01 -1.2234532274305820e-02</leafValues></_>
        <_>
          <internalNodes>
            0 -1 117 1.3405436184257269e-03</internalNodes>
          <leafValues>
            6.7284572869539261e-03 -1.</leafValues></_>
        <_>
          <internalNodes>
            0 -1 151 1.7255080165341496e-03</internalNodes>
          <leafValues>
            -7.7802352607250214e-03 9.2322486639022827e-01</leafValues></_>
        <_>
          <internalNodes>
            0 -1 86 1.4537501556333154e-04</internalNodes>
          <leafValues>
            9.6620796248316765e-03 -1.</leafValues></_>
        <_>
          <internalNodes>
            0 -1 100 1.7369357010466047e-05</internalNodes>
          <leafValues>
            -7.4364165775477886e-03 9.1725242137908936e-01</leafValues></_>
        <_>
          <internalNodes>
            0 -1 555 4.8998273996403441e-05</internalNodes>
          <leafValues>
            9.2968018725514412e-03 -9.0533924102783203e-01</leafValues></_>
        <_>
          <internalNodes>
            0 -1 125 -4.0820630965754390e-04</internalNodes>
          <leafValues>
            8.6312365531921387e-01 -7.0274239405989647e-03</leafValues></_>
        <_>
          <internalNodes>
            0 -1 448 -1.0704441956477240e-04</internalNodes>
          <leafValues>
            -1. 1.2438632547855377e-03</leafValues></_>
        <_>
          <internalNodes>
            0 -1 231 -1.2332242913544178e-03</internalNodes>
          <leafValues>
            9.7370910644531250e-01 -9.9821132607758045e-04</leafValues></_>
        <_>
          <internalNodes>
            0 -1 305 -1.9572686869651079e-03</internalNodes>
          <leafValues>
            -1. 3.8904517423361540e-03</leafValues></_>
        <_>
          <internalNodes>
            0 -1 436 -5.0582611002027988e-03</internalNodes>
          <leafValues>
            9.5009583234786987e-01 -2.0515390206128359e-03</leafValues></_>
        <_>
          <internalNodes>
            0 -1 249 -6.5022278577089310e-03</internalNodes>
          <leafValues>
            -1. 1.2751682661473751e-03</leafValues></_>
        <_>
          <internalNodes>
            0 -1 225 -3.2282681786455214e-04</internalNodes>
          <leafValues>
            9.5674717426300049e-01 -2.4405664298683405e-03</leafValues></_>
        <_>
          <internalNodes>
            0 -1 329 -1.0873145423829556e-02</internalNodes>
          <leafValues>
            -1. 1.0986251290887594e-03</leafValues></_>
        <_>
          <internalNodes>
            0 -1 302 -4.3258294463157654e-03</internalNodes>
          <leafValues>
            9.6863108873367310e-01 -2.2555794566869736e-03</leafValues></_>
        <_>
          <internalNodes>
            0 -1 254 -2.2988587152212858e-03</internalNodes>
          <leafValues>
            -1. 2.1728388965129852e-03</leafValues></_>
        <_>
          <internalNodes>
            0 -1 278 -4.6823686716379598e-05</internalNodes>
          <leafValues>
            1. 4.2326303082518280e-04</leafValues></_>
        <_>
          <internalNodes>
            0 -1 208 -4.5516382670029998e-05</internalNodes>
          <leafValues>
            -1. 1.6395229613408446e-04</leafValues></_>
        <_>
          <internalNodes>
            0 -1 207 -2.1539549925364554e-04</internalNodes>
          <leafValues>
            1. -1.4219817239791155e-03</leafValues></_>
        <_>
          <internalNodes>
            0 -1 143 -8.9977795141749084e-05</internalNodes>
          <leafValues>
            -1. 3.7968491669744253e-03</leafValues></_>
        <_>
          <internalNodes>
            0 -1 84 -4.7531275777146220e-04</internalNodes>
          <leafValues>
            1. -3.8770323153585196e-03</leafValues></_>
        <_>
          <internalNodes>
            0 -1 77 -5.2046682685613632e-04</internalNodes>
          <leafValues>
            -1. 1.9247812451794744e-03</leafValues></_>
        <_>
          <internalNodes>
            0 -1 61 -8.9019164443016052e-03</internalNodes>
          <leafValues>
            1. -2.2511973511427641e-03</leafValues></_>
        <_>
          <internalNodes>
            0 -1 458 7.3497409175615758e-05</internalNodes>
          <leafValues>
            2.2041765041649342e-03 -1.</leafValues></_>
        <_>
          <internalNodes>
            0 -1 255 -2.9643144807778299e-04</internalNodes>
          <leafValues>
            1. -1.2512785615399480e-03</leafValues></_>
        <_>
          <internalNodes>
            0 -1 371 -7.4619473889470100e-04</internalNodes>
          <leafValues>
            -1. 1.8876848043873906e-03</leafValues></_>
        <_>
          <internalNodes>
            0 -1 367 -1.1606441810727119e-02</internalNodes>
          <leafValues>
            9.8736470937728882e-01 -3.4613385796546936e-03</leafValues></_>
        <_>
          <internalNodes>
            0 -1 321 -3.3644144423305988e-03</internalNodes>
          <leafValues>
            -1. 1.8081258749589324e-03</leafValues></_>
        <_>
          <internalNodes>
            0 -1 247 -5.9480159543454647e-03</internalNodes>
          <leafValues>
            1. -2.3447260900866240e-04</leafValues></_>
        <_>
          <internalNodes>
            0 -1 392 -5.2184157539159060e-04</internalNodes>
          <leafValues>
            -1. 5.8670080034062266e-04</leafValues></_>
        <_>
          <internalNodes>
            0 -1 392 -7.6002517016604543e-04</internalNodes>
          <leafValues>
            1. -5.8670068392530084e-04</leafValues></_>
        <_>
          <internalNodes>
            0 -1 392 -5.2184157539159060e-04</internalNodes>
          <leafValues>
            -1. 5.8670068392530084e-04</leafValues></_>
        <_>
          <internalNodes>
            0 -1 392 -7.6002517016604543e-04</internalNodes>
          <leafValues>
            1. -5.8670068392530084e-04</leafValues></_>
        <_>
          <internalNodes>
            0 -1 392 -5.2184157539159060e-04</internalNodes>
          <leafValues>
            -1. 5.8670068392530084e-04</leafValues></_>
        <_>
          <internalNodes>
            0 -1 392 -7.6002517016604543e-04</internalNodes>
          <leafValues>
            1. -5.8670068392530084e-04</leafValues></_>
        <_>
          <internalNodes>
            0 -1 392 -5.2184157539159060e-04</internalNodes>
          <leafValues>
            -1. 5.8670068392530084e-04</leafValues></_>
        <_>
          <internalNodes>
            0 -1 392 -7.6002517016604543e-04</internalNodes>
          <leafValues>
            1. -5.8670068392530084e-04</leafValues></_>
        <_>
          <internalNodes>
            0 -1 392 -5.2184157539159060e-04</internalNodes>
          <leafValues>
            -1. 5.8670068392530084e-04</leafValues></_>
        <_>
          <internalNodes>
            0 -1 392 -7.6002517016604543e-04</internalNodes>
          <leafValues>
            1. -5.8670068392530084e-04</leafValues></_>
        <_>
          <internalNodes>
            0 -1 392 -5.2184157539159060e-04</internalNodes>
          <leafValues>
            -1. 5.8670068392530084e-04</leafValues></_>
        <_>
          <internalNodes>
            0 -1 392 -7.6002517016604543e-04</internalNodes>
          <leafValues>
            1. -5.8670068392530084e-04</leafValues></_>
        <_>
          <internalNodes>
            0 -1 392 -5.2184157539159060e-04</internalNodes>
          <leafValues>
            -1. 5.8670068392530084e-04</leafValues></_>
        <_>
          <internalNodes>
            0 -1 392 -7.6002517016604543e-04</internalNodes>
          <leafValues>
            1. -5.8670068392530084e-04</leafValues></_>
        <_>
          <internalNodes>
            0 -1 392 -5.2184157539159060e-04</internalNodes>
          <leafValues>
            -1. 5.8670068392530084e-04</leafValues></_>
        <_>
          <internalNodes>
            0 -1 392 -7.6002517016604543e-04</internalNodes>
          <leafValues>
            1. -5.8670068392530084e-04</leafValues></_>
        <_>
          <internalNodes>
            0 -1 392 -5.2184157539159060e-04</internalNodes>
          <leafValues>
            -1. 5.8670068392530084e-04</leafValues></_>
        <_>
          <internalNodes>
            0 -1 392 -7.6002517016604543e-04</internalNodes>
          <leafValues>
            1. -5.8670068392530084e-04</leafValues></_></weakClassifiers></_>
    <!-- stage 8 -->
    <_>
      <maxWeakCount>100</maxWeakCount>
      <stageThreshold>-2.9965648651123047e+00</stageThreshold>
      <weakClassifiers>
        <_>
          <internalNodes>
            0 -1 463 -1.5598605386912823e-04</internalNodes>
          <leafValues>
            9.7183096408843994e-01 -8.7538939714431763e-01</leafValues></_>
        <_>
          <internalNodes>
            0 -1 97 -7.2200702561531216e-05</internalNodes>
          <leafValues>
            9.2357492446899414e-01 -7.1329855918884277e-01</leafValues></_>
        <_>
          <internalNodes>
            0 -1 354 -8.0187994171865284e-05</internalNodes>
          <leafValues>
            9.9791836738586426e-01 -5.3694850206375122e-01</leafValues></_>
        <_>
          <internalNodes>
            0 -1 416 6.1783677665516734e-05</internalNodes>
          <leafValues>
            -4.5927181839942932e-01 9.8938196897506714e-01</leafValues></_>
        <_>
          <internalNodes>
            0 -1 476 3.6871380871161819e-05</internalNodes>
          <leafValues>
            -1.7156405746936798e-01 1.</leafValues></_>
        <_>
          <internalNodes>
            0 -1 350 -9.5498908194713295e-05</internalNodes>
          <leafValues>
            9.8316496610641479e-01 -1.3471953570842743e-01</leafValues></_>
        <_>
          <internalNodes>
            0 -1 209 3.8333288102876395e-05</internalNodes>
          <leafValues>
            -7.9818144440650940e-02 1.</leafValues></_>
        <_>
          <internalNodes>
            0 -1 373 -1.7648202629061416e-05</internalNodes>
          <leafValues>
            1. -5.5567547678947449e-02</leafValues></_>
        <_>
          <internalNodes>
            0 -1 42 -1.3398371636867523e-01</internalNodes>
          <leafValues>
            -9.1032606363296509e-01 9.2427693307399750e-02</leafValues></_>
        <_>
          <internalNodes>
            0 -1 336 -3.0857914680382237e-05</internalNodes>
          <leafValues>
            1. -6.4128391444683075e-02</leafValues></_>
        <_>
          <internalNodes>
            0 -1 365 -4.3532482231967151e-04</internalNodes>
          <leafValues>
            1. -2.2599387913942337e-02</leafValues></_>
        <_>
          <internalNodes>
            0 -1 40 -2.4908655905164778e-04</internalNodes>
          <leafValues>
            -1. 2.8090713545680046e-02</leafValues></_>
        <_>
          <internalNodes>
            0 -1 557 2.1868489056942053e-05</internalNodes>
          <leafValues>
            -3.7691327743232250e-03 1.</leafValues></_>
        <_>
          <internalNodes>
            0 -1 65 1.3212671037763357e-03</internalNodes>
          <leafValues>
            -1.0242619551718235e-02 1.</leafValues></_>
        <_>
          <internalNodes>
            0 -1 40 -2.4908655905164778e-04</internalNodes>
          <leafValues>
            -1. 1.0233436711132526e-02</leafValues></_>
        <_>
          <internalNodes>
            0 -1 516 1.9237414235249162e-03</internalNodes>
          <leafValues>
            3.8481904193758965e-03 9.7459030151367188e-01</leafValues></_>
        <_>
          <internalNodes>
            0 -1 58 -1.3982398435473442e-02</internalNodes>
          <leafValues>
            1. -9.0288594365119934e-03</leafValues></_>
        <_>
          <internalNodes>
            0 -1 32 -9.8464833572506905e-03</internalNodes>
          <leafValues>
            -1. 5.1809805445373058e-03</leafValues></_>
        <_>
          <internalNodes>
            0 -1 21 -1.4983579749241471e-03</internalNodes>
          <leafValues>
            9.7461897134780884e-01 4.6357673255670306e-08</leafValues></_>
        <_>
          <internalNodes>
            0 -1 5 3.4263948327861726e-04</internalNodes>
          <leafValues>
            1.4970905849102760e-14 -1.</leafValues></_>
        <_>
          <internalNodes>
            0 -1 3 5.8067827922059223e-05</internalNodes>
          <leafValues>
            -6.0984649462625384e-04 1.</leafValues></_>
        <_>
          <internalNodes>
            0 -1 5 3.4263948327861726e-04</internalNodes>
          <leafValues>
            6.0984637821093202e-04 -1.</leafValues></_>
        <_>
          <internalNodes>
            0 -1 3 5.8067827922059223e-05</internalNodes>
          <leafValues>
            7.5608824756656645e-11 1.</leafValues></_>
        <_>
          <internalNodes>
            0 -1 1 8.6409716459456831e-05</internalNodes>
          <leafValues>
            8.0973808658669350e-15 -1.</leafValues></_>
        <_>
          <internalNodes>
            0 -1 1 8.6809828644618392e-05</internalNodes>
          <leafValues>
            -8.6623077959722961e-15 1.</leafValues></_>
        <_>
          <internalNodes>
            0 -1 1 8.6409716459456831e-05</internalNodes>
          <leafValues>
            5.6044684579239102e-15 -1.</leafValues></_>
        <_>
          <internalNodes>
            0 -1 1 8.6809828644618392e-05</internalNodes>
          <leafValues>
            2.4818880623762732e-15 1.</leafValues></_>
        <_>
          <internalNodes>
            0 -1 1 8.6409716459456831e-05</internalNodes>
          <leafValues>
            -2.1187898983053566e-14 -1.</leafValues></_>
        <_>
          <internalNodes>
            0 -1 1 8.6809828644618392e-05</internalNodes>
          <leafValues>
            3.9863483844990773e-15 1.</leafValues></_>
        <_>
          <internalNodes>
            0 -1 1 8.6409716459456831e-05</internalNodes>
          <leafValues>
            1.8210219031485064e-14 -1.</leafValues></_>
        <_>
          <internalNodes>
            0 -1 1 8.6809828644618392e-05</internalNodes>
          <leafValues>
            -1.6811716178316669e-15 1.</leafValues></_>
        <_>
          <internalNodes>
            0 -1 1 8.6409716459456831e-05</internalNodes>
          <leafValues>
            -2.1068423291777452e-14 -1.</leafValues></_>
        <_>
          <internalNodes>
            0 -1 1 8.6809828644618392e-05</internalNodes>
          <leafValues>
            4.1168710794732815e-15 1.</leafValues></_>
        <_>
          <internalNodes>
            0 -1 1 8.6409716459456831e-05</internalNodes>
          <leafValues>
            1.8156781416908685e-14 -1.</leafValues></_>
        <_>
          <internalNodes>
            0 -1 1 8.6809828644618392e-05</internalNodes>
          <leafValues>
            -1.7357476446891560e-15 1.</leafValues></_>
        <_>
          <internalNodes>
            0 -1 1 8.6409716459456831e-05</internalNodes>
          <leafValues>
            -2.1112748525907270e-14 -1.</leafValues></_>
        <_>
          <internalNodes>
            0 -1 1 8.6809828644618392e-05</internalNodes>
          <leafValues>
            6.3397815710836310e-15 1.</leafValues></_>
        <_>
          <internalNodes>
            0 -1 1 8.6409716459456831e-05</internalNodes>
          <leafValues>
            1.7413037361308469e-14 -1.</leafValues></_>
        <_>
          <internalNodes>
            0 -1 1 8.6809828644618392e-05</internalNodes>
          <leafValues>
            -1.9299234892209815e-15 1.</leafValues></_>
        <_>
          <internalNodes>
            0 -1 1 8.6409716459456831e-05</internalNodes>
          <leafValues>
            -2.1299725966815973e-14 -1.</leafValues></_>
        <_>
          <internalNodes>
            0 -1 1 8.6809828644618392e-05</internalNodes>
          <leafValues>
            3.8822518469297865e-15 1.</leafValues></_>
        <_>
          <internalNodes>
            0 -1 1 8.6409716459456831e-05</internalNodes>
          <leafValues>
            1.8298195261518685e-14 -1.</leafValues></_>
        <_>
          <internalNodes>
            0 -1 1 8.6809828644618392e-05</internalNodes>
          <leafValues>
            5.4426668479108545e-16 1.</leafValues></_>
        <_>
          <internalNodes>
            0 -1 1 8.6409716459456831e-05</internalNodes>
          <leafValues>
            -2.2023107350364196e-14 -1.</leafValues></_>
        <_>
          <internalNodes>
            0 -1 1 8.6809828644618392e-05</internalNodes>
          <leafValues>
            3.6426914476884835e-15 1.</leafValues></_>
        <_>
          <internalNodes>
            0 -1 1 8.6409716459456831e-05</internalNodes>
          <leafValues>
            1.8041242734771409e-14 -1.</leafValues></_>
        <_>
          <internalNodes>
            0 -1 1 8.6809828644618392e-05</internalNodes>
          <leafValues>
            -1.7945748240297960e-15 1.</leafValues></_>
        <_>
          <internalNodes>
            0 -1 1 8.6409716459456831e-05</internalNodes>
          <leafValues>
            -2.1251013102019378e-14 -1.</leafValues></_>
        <_>
          <internalNodes>
            0 -1 1 8.6809828644618392e-05</internalNodes>
          <leafValues>
            6.2255740012229655e-15 1.</leafValues></_>
        <_>
          <internalNodes>
            0 -1 1 8.6409716459456831e-05</internalNodes>
          <leafValues>
            1.7506187268583918e-14 -1.</leafValues></_>
        <_>
          <internalNodes>
            0 -1 1 8.6809828644618392e-05</internalNodes>
          <leafValues>
            -1.9267062463290728e-15 1.</leafValues></_>
        <_>
          <internalNodes>
            0 -1 1 8.6409716459456831e-05</internalNodes>
          <leafValues>
            -2.1298712915411057e-14 -1.</leafValues></_>
        <_>
          <internalNodes>
            0 -1 1 8.6809828644618392e-05</internalNodes>
          <leafValues>
            6.2210931969319903e-15 1.</leafValues></_>
        <_>
          <internalNodes>
            0 -1 1 8.6409716459456831e-05</internalNodes>
          <leafValues>
            1.7469849555146709e-14 -1.</leafValues></_>
        <_>
          <internalNodes>
            0 -1 1 8.6809828644618392e-05</internalNodes>
          <leafValues>
            -1.8497253509837603e-15 1.</leafValues></_>
        <_>
          <internalNodes>
            0 -1 1 8.6409716459456831e-05</internalNodes>
          <leafValues>
            -2.1303100546077834e-14 -1.</leafValues></_>
        <_>
          <internalNodes>
            0 -1 1 8.6809828644618392e-05</internalNodes>
          <leafValues>
            3.8783453309770496e-15 1.</leafValues></_>
        <_>
          <internalNodes>
            0 -1 1 8.6409716459456831e-05</internalNodes>
          <leafValues>
            1.8156669608559647e-14 -1.</leafValues></_>
        <_>
          <internalNodes>
            0 -1 1 8.6809828644618392e-05</internalNodes>
          <leafValues>
            -1.7943450663428532e-15 1.</leafValues></_>
        <_>
          <internalNodes>
            0 -1 1 8.6409716459456831e-05</internalNodes>
          <leafValues>
            -2.1250899599604446e-14 -1.</leafValues></_>
        <_>
          <internalNodes>
            0 -1 1 8.6809828644618392e-05</internalNodes>
          <leafValues>
            6.2348807757309221e-15 1.</leafValues></_>
        <_>
          <internalNodes>
            0 -1 1 8.6409716459456831e-05</internalNodes>
          <leafValues>
            1.7506300770998851e-14 -1.</leafValues></_>
        <_>
          <internalNodes>
            0 -1 1 8.6809828644618392e-05</internalNodes>
          <leafValues>
            -1.9260169732682447e-15 1.</leafValues></_>
        <_>
          <internalNodes>
            0 -1 1 8.6409716459456831e-05</internalNodes>
          <leafValues>
            -2.1289600534964495e-14 -1.</leafValues></_>
        <_>
          <internalNodes>
            0 -1 1 8.6809828644618392e-05</internalNodes>
          <leafValues>
            6.2213231663771698e-15 1.</leafValues></_>
        <_>
          <internalNodes>
            0 -1 1 8.6409716459456831e-05</internalNodes>
          <leafValues>
            1.7469961363495747e-14 -1.</leafValues></_>
        <_>
          <internalNodes>
            0 -1 1 8.6809828644618392e-05</internalNodes>
          <leafValues>
            -1.8494955932968175e-15 1.</leafValues></_>
        <_>
          <internalNodes>
            0 -1 1 8.6409716459456831e-05</internalNodes>
          <leafValues>
            -2.1417400866046224e-14 -1.</leafValues></_>
        <_>
          <internalNodes>
            0 -1 1 8.6809828644618392e-05</internalNodes>
          <leafValues>
            3.7637930187068517e-15 1.</leafValues></_>
        <_>
          <internalNodes>
            0 -1 1 8.6409716459456831e-05</internalNodes>
          <leafValues>
            1.8297295712528701e-14 -1.</leafValues></_>
        <_>
          <internalNodes>
            0 -1 1 8.6809828644618392e-05</internalNodes>
          <leafValues>
            -1.7943450663428532e-15 1.</leafValues></_>
        <_>
          <internalNodes>
            0 -1 1 8.6409716459456831e-05</internalNodes>
          <leafValues>
            -2.1250899599604446e-14 -1.</leafValues></_>
        <_>
          <internalNodes>
            0 -1 1 8.6809828644618392e-05</internalNodes>
          <leafValues>
            6.2348807757309221e-15 1.</leafValues></_>
        <_>
          <internalNodes>
            0 -1 1 8.6409716459456831e-05</internalNodes>
          <leafValues>
            1.7506300770998851e-14 -1.</leafValues></_>
        <_>
          <internalNodes>
            0 -1 1 8.6809828644618392e-05</internalNodes>
          <leafValues>
            -1.9260169732682447e-15 1.</leafValues></_>
        <_>
          <internalNodes>
            0 -1 1 8.6409716459456831e-05</internalNodes>
          <leafValues>
            -2.1289600534964495e-14 -1.</leafValues></_>
        <_>
          <internalNodes>
            0 -1 1 8.6809828644618392e-05</internalNodes>
          <leafValues>
            6.2213231663771698e-15 1.</leafValues></_>
        <_>
          <internalNodes>
            0 -1 1 8.6409716459456831e-05</internalNodes>
          <leafValues>
            1.7469961363495747e-14 -1.</leafValues></_>
        <_>
          <internalNodes>
            0 -1 1 8.6809828644618392e-05</internalNodes>
          <leafValues>
            -1.8494955932968175e-15 1.</leafValues></_>
        <_>
          <internalNodes>
            0 -1 1 8.6409716459456831e-05</internalNodes>
          <leafValues>
            -2.1302875235313865e-14 -1.</leafValues></_>
        <_>
          <internalNodes>
            0 -1 1 8.6809828644618392e-05</internalNodes>
          <leafValues>
            3.8790343922796410e-15 1.</leafValues></_>
        <_>
          <internalNodes>
            0 -1 1 8.6409716459456831e-05</internalNodes>
          <leafValues>
            1.8067117897244134e-14 -1.</leafValues></_>
        <_>
          <internalNodes>
            0 -1 1 8.6809828644618392e-05</internalNodes>
          <leafValues>
            4.2684203085718896e-16 1.</leafValues></_>
        <_>
          <internalNodes>
            0 -1 1 8.6409716459456831e-05</internalNodes>
          <leafValues>
            -2.2135945691465625e-14 -1.</leafValues></_>
        <_>
          <internalNodes>
            0 -1 1 8.6809828644618392e-05</internalNodes>
          <leafValues>
            3.6428066441693101e-15 1.</leafValues></_>
        <_>
          <internalNodes>
            0 -1 1 8.6409716459456831e-05</internalNodes>
          <leafValues>
            1.8041468045535379e-14 -1.</leafValues></_>
        <_>
          <internalNodes>
            0 -1 1 8.6809828644618392e-05</internalNodes>
          <leafValues>
            -1.7943450663428532e-15 1.</leafValues></_>
        <_>
          <internalNodes>
            0 -1 1 8.6409716459456831e-05</internalNodes>
          <leafValues>
            -2.1365201613638730e-14 -1.</leafValues></_>
        <_>
          <internalNodes>
            0 -1 1 8.6809828644618392e-05</internalNodes>
          <leafValues>
            6.1205584329059037e-15 1.</leafValues></_>
        <_>
          <internalNodes>
            0 -1 1 8.6409716459456831e-05</internalNodes>
          <leafValues>
            1.7451961913366593e-14 -1.</leafValues></_>
        <_>
          <internalNodes>
            0 -1 1 8.6809828644618392e-05</internalNodes>
          <leafValues>
            -1.9163654563507555e-15 1.</leafValues></_>
        <_>
          <internalNodes>
            0 -1 1 8.6409716459456831e-05</internalNodes>
          <leafValues>
            -2.1400751586434993e-14 -1.</leafValues></_>
        <_>
          <internalNodes>
            0 -1 1 8.6809828644618392e-05</internalNodes>
          <leafValues>
            6.1078046578190957e-15 1.</leafValues></_>
        <_>
          <internalNodes>
            0 -1 1 8.6409716459456831e-05</internalNodes>
          <leafValues>
            1.7218184208056195e-14 -1.</leafValues></_>
        <_>
          <internalNodes>
            0 -1 1 8.6809828644618392e-05</internalNodes>
          <leafValues>
            -2.0434415742625819e-15 1.</leafValues></_>
        <_>
          <internalNodes>
            0 -1 1 8.6409716459456831e-05</internalNodes>
          <leafValues>
            -2.1298712915411057e-14 -1.</leafValues></_>
        <_>
          <internalNodes>
            0 -1 1 8.6809828644618392e-05</internalNodes>
          <leafValues>
            6.1043580807567180e-15 1.</leafValues></_>
        <_>
          <internalNodes>
            0 -1 1 8.6409716459456831e-05</internalNodes>
          <leafValues>
            1.7217284659066211e-14 -1.</leafValues></_>
        <_>
          <internalNodes>
            0 -1 1 8.6809828644618392e-05</internalNodes>
          <leafValues>
            -2.0443608167685897e-15 1.</leafValues></_>
        <_>
          <internalNodes>
            0 -1 1 8.6409716459456831e-05</internalNodes>
          <leafValues>
            -2.1299050034524064e-14 -1.</leafValues></_></weakClassifiers></_>
    <!-- stage 9 -->
    <_>
      <maxWeakCount>100</maxWeakCount>
      <stageThreshold>-2.9907071590423584e+00</stageThreshold>
      <weakClassifiers>
        <_>
          <internalNodes>
            0 -1 463 -1.5598605386912823e-04</internalNodes>
          <leafValues>
            9.1780823469161987e-01 -8.7421381473541260e-01</leafValues></_>
        <_>
          <internalNodes>
            0 -1 135 -1.4847149941488169e-05</internalNodes>
          <leafValues>
            9.3334460258483887e-01 -6.3946491479873657e-01</leafValues></_>
        <_>
          <internalNodes>
            0 -1 497 1.0588920849841088e-04</internalNodes>
          <leafValues>
            -5.6570726633071899e-01 8.3980017900466919e-01</leafValues></_>
        <_>
          <internalNodes>
            0 -1 325 2.6028158026747406e-04</internalNodes>
          <leafValues>
            -4.8154065012931824e-01 8.3463114500045776e-01</leafValues></_>
        <_>
          <internalNodes>
            0 -1 487 5.7917536469176412e-04</internalNodes>
          <leafValues>
            -2.6217758655548096e-01 8.8978725671768188e-01</leafValues></_>
        <_>
          <internalNodes>
            0 -1 545 -1.6053869330789894e-05</internalNodes>
          <leafValues>
            8.4644067287445068e-01 -2.0345765352249146e-01</leafValues></_>
        <_>
          <internalNodes>
            0 -1 409 1.6893731663003564e-04</internalNodes>
          <leafValues>
            -1.1989469081163406e-01 8.2571619749069214e-01</leafValues></_>
        <_>
          <internalNodes>
            0 -1 243 -2.0069099264219403e-04</internalNodes>
          <leafValues>
            -7.9820895195007324e-01 2.2782739996910095e-01</leafValues></_>
        <_>
          <internalNodes>
            0 -1 300 -9.5992314163595438e-04</internalNodes>
          <leafValues>
            1. -1.6030476987361908e-01</leafValues></_>
        <_>
          <internalNodes>
            0 -1 111 2.9639233835041523e-03</internalNodes>
          <leafValues>
            1.4082144200801849e-01 -9.5454382896423340e-01</leafValues></_>
        <_>
          <internalNodes>
            0 -1 404 2.7631237171590328e-03</internalNodes>
          <leafValues>
            -1.2958326935768127e-01 1.</leafValues></_>
        <_>
          <internalNodes>
            0 -1 383 -2.0870289299637079e-03</internalNodes>
          <leafValues>
            -7.7566313743591309e-01 1.2372815608978271e-01</leafValues></_>
        <_>
          <internalNodes>
            0 -1 539 1.9747382611967623e-04</internalNodes>
          <leafValues>
            -9.3972332775592804e-02 9.1670817136764526e-01</leafValues></_>
        <_>
          <internalNodes>
            0 -1 166 3.0496157705783844e-03</internalNodes>
          <leafValues>
            -3.5014078021049500e-02 9.1438376903533936e-01</leafValues></_>
        <_>
          <internalNodes>
            0 -1 110 -1.4037512301001698e-05</internalNodes>
          <leafValues>
            -8.6951035261154175e-01 9.1032430529594421e-02</leafValues></_>
        <_>
          <internalNodes>
            0 -1 427 -6.7136005964130163e-04</internalNodes>
          <leafValues>
            1. -4.2832273989915848e-02</leafValues></_>
        <_>
          <internalNodes>
            0 -1 64 -5.9460498392581940e-02</internalNodes>
          <leafValues>
            -8.9847028255462646e-01 5.0339356064796448e-02</leafValues></_>
        <_>
          <internalNodes>
            0 -1 567 2.4478984414599836e-04</internalNodes>
          <leafValues>
            -3.0644958838820457e-02 8.5843336582183838e-01</leafValues></_>
        <_>
          <internalNodes>
            0 -1 168 -1.0890470730373636e-04</internalNodes>
          <leafValues>
            -8.6293905973434448e-01 3.2066751271486282e-02</leafValues></_>
        <_>
          <internalNodes>
            0 -1 346 -1.5897017146926373e-04</internalNodes>
          <leafValues>
            9.4540947675704956e-01 -1.8723776564002037e-02</leafValues></_>
        <_>
          <internalNodes>
            0 -1 162 -8.3807914052158594e-04</internalNodes>
          <leafValues>
            -1. 2.4422254413366318e-02</leafValues></_>
        <_>
          <internalNodes>
            0 -1 69 -7.6422584243118763e-04</internalNodes>
          <leafValues>
            9.1604501008987427e-01 -2.1840570494532585e-02</leafValues></_>
        <_>
          <internalNodes>
            0 -1 587 3.6108158383285627e-05</internalNodes>
          <leafValues>
            -1.6378697007894516e-02 1.</leafValues></_>
        <_>
          <internalNodes>
            0 -1 176 -1.2529399245977402e-03</internalNodes>
          <leafValues>
            -1. 1.6030389815568924e-02</leafValues></_>
        <_>
          <internalNodes>
            0 -1 488 -5.7353451848030090e-03</internalNodes>
          <leafValues>
            9.7668260335922241e-01 -3.0497170519083738e-04</leafValues></_>
        <_>
          <internalNodes>
            0 -1 196 -2.7564677293412387e-04</internalNodes>
          <leafValues>
            -1. 3.2496438361704350e-03</leafValues></_>
        <_>
          <internalNodes>
            0 -1 114 -1.4283788914326578e-05</internalNodes>
          <leafValues>
            1. -2.6777090970426798e-03</leafValues></_>
        <_>
          <internalNodes>
            0 -1 59 -1.7362482321914285e-04</internalNodes>
          <leafValues>
            -1. 1.8703717505559325e-03</leafValues></_>
        <_>
          <internalNodes>
            0 -1 62 -1.3744433817919344e-04</internalNodes>
          <leafValues>
            1. -3.3613331615924835e-03</leafValues></_>
        <_>
          <internalNodes>
            0 -1 177 2.5058798200916499e-05</internalNodes>
          <leafValues>
            2.2586053237318993e-03 -1.</leafValues></_>
        <_>
          <internalNodes>
            0 -1 48 -2.0832328591495752e-03</internalNodes>
          <leafValues>
            1. -2.2586141712963581e-03</leafValues></_>
        <_>
          <internalNodes>
            0 -1 45 -3.8116646464914083e-03</internalNodes>
          <leafValues>
            -1. -3.8406695601622687e-09</leafValues></_>
        <_>
          <internalNodes>
            0 -1 45 -1.5711151063442230e-02</internalNodes>
          <leafValues>
            1. -6.9222433537465770e-15</leafValues></_>
        <_>
          <internalNodes>
            0 -1 9 -4.6204862883314490e-05</internalNodes>
          <leafValues>
            -1. 5.2409231875117854e-15</leafValues></_>
        <_>
          <internalNodes>
            0 -1 7 -1.2741828686557710e-04</internalNodes>
          <leafValues>
            1. -6.0249190957984734e-15</leafValues></_>
        <_>
          <internalNodes>
            0 -1 4 -6.4643812947906554e-05</internalNodes>
          <leafValues>
            -1. 2.5360484925181920e-14</leafValues></_>
        <_>
          <internalNodes>
            0 -1 4 -4.9405240133637562e-05</internalNodes>
          <leafValues>
            1. -7.2589613966532636e-15</leafValues></_>
        <_>
          <internalNodes>
            0 -1 4 -6.4643812947906554e-05</internalNodes>
          <leafValues>
            -1. 2.4193465376828047e-15</leafValues></_>
        <_>
          <internalNodes>
            0 -1 4 -4.9405240133637562e-05</internalNodes>
          <leafValues>
            1. -5.4630910357306422e-15</leafValues></_>
        <_>
          <internalNodes>
            0 -1 4 -6.4643812947906554e-05</internalNodes>
          <leafValues>
            -1. -1.0095794168653478e-14</leafValues></_>
        <_>
          <internalNodes>
            0 -1 4 -4.9405240133637562e-05</internalNodes>
          <leafValues>
            1. 1.7971228685417263e-14</leafValues></_>
        <_>
          <internalNodes>
            0 -1 4 -6.4643812947906554e-05</internalNodes>
          <leafValues>
            -1. -1.6066493838465257e-14</leafValues></_>
        <_>
          <internalNodes>
            0 -1 4 -4.9405240133637562e-05</internalNodes>
          <leafValues>
            1. 2.8582106130394924e-15</leafValues></_>
        <_>
          <internalNodes>
            0 -1 4 -6.4643812947906554e-05</internalNodes>
          <leafValues>
            -1. 9.2609390140818530e-15</leafValues></_>
        <_>
          <internalNodes>
            0 -1 4 -4.9405240133637562e-05</internalNodes>
          <leafValues>
            1. 4.4023605697300280e-15</leafValues></_>
        <_>
          <internalNodes>
            0 -1 4 -6.4643812947906554e-05</internalNodes>
          <leafValues>
            -1. 1.0942384541192838e-16</leafValues></_>
        <_>
          <internalNodes>
            0 -1 4 -4.9405240133637562e-05</internalNodes>
          <leafValues>
            1. -1.0946080569458182e-14</leafValues></_>
        <_>
          <internalNodes>
            0 -1 4 -6.4643812947906554e-05</internalNodes>
          <leafValues>
            -1. -1.2361799579037758e-14</leafValues></_>
        <_>
          <internalNodes>
            0 -1 4 -4.9405240133637562e-05</internalNodes>
          <leafValues>
            1. 1.6817979775203377e-14</leafValues></_>
        <_>
          <internalNodes>
            0 -1 4 -6.4643812947906554e-05</internalNodes>
          <leafValues>
            -1. -4.6288476507051713e-16</leafValues></_>
        <_>
          <internalNodes>
            0 -1 4 -4.9405240133637562e-05</internalNodes>
          <leafValues>
            1. -1.3516307180211264e-14</leafValues></_>
        <_>
          <internalNodes>
            0 -1 4 -6.4643812947906554e-05</internalNodes>
          <leafValues>
            -1. -1.3387295380256725e-15</leafValues></_>
        <_>
          <internalNodes>
            0 -1 4 -4.9405240133637562e-05</internalNodes>
          <leafValues>
            1. 5.3841437533982787e-15</leafValues></_>
        <_>
          <internalNodes>
            0 -1 4 -6.4643812947906554e-05</internalNodes>
          <leafValues>
            -1. -2.9581990408145999e-15</leafValues></_>
        <_>
          <internalNodes>
            0 -1 4 -4.9405240133637562e-05</internalNodes>
          <leafValues>
            1. 1.2374849815656105e-14</leafValues></_>
        <_>
          <internalNodes>
            0 -1 4 -6.4643812947906554e-05</internalNodes>
          <leafValues>
            -1. -6.3165919265701764e-15</leafValues></_>
        <_>
          <internalNodes>
            0 -1 4 -4.9405240133637562e-05</internalNodes>
          <leafValues>
            1. -2.8449200308223619e-15</leafValues></_>
        <_>
          <internalNodes>
            0 -1 4 -6.4643812947906554e-05</internalNodes>
          <leafValues>
            -1. 1.4493955149031020e-14</leafValues></_>
        <_>
          <internalNodes>
            0 -1 4 -4.9405240133637562e-05</internalNodes>
          <leafValues>
            1. 1.0253795459469559e-15</leafValues></_>
        <_>
          <internalNodes>
            0 -1 4 -6.4643812947906554e-05</internalNodes>
          <leafValues>
            -1. 5.1805239150210414e-16</leafValues></_>
        <_>
          <internalNodes>
            0 -1 4 -4.9405240133637562e-05</internalNodes>
          <leafValues>
            1. -2.3230510465027839e-14</leafValues></_>
        <_>
          <internalNodes>
            0 -1 4 -6.4643812947906554e-05</internalNodes>
          <leafValues>
            -1. 6.8096819924189003e-15</leafValues></_>
        <_>
          <internalNodes>
            0 -1 4 -4.9405240133637562e-05</internalNodes>
          <leafValues>
            1. -1.0287490430111335e-15</leafValues></_>
        <_>
          <internalNodes>
            0 -1 4 -6.4643812947906554e-05</internalNodes>
          <leafValues>
            -1. 1.2496745480062525e-14</leafValues></_>
        <_>
          <internalNodes>
            0 -1 4 -4.9405240133637562e-05</internalNodes>
          <leafValues>
            1. -7.8370368191988532e-16</leafValues></_>
        <_>
          <internalNodes>
            0 -1 4 -6.4643812947906554e-05</internalNodes>
          <leafValues>
            -1. 4.2925970111666915e-16</leafValues></_>
        <_>
          <internalNodes>
            0 -1 4 -4.9405240133637562e-05</internalNodes>
          <leafValues>
            1. 3.3013155706048455e-15</leafValues></_>
        <_>
          <internalNodes>
            0 -1 4 -6.4643812947906554e-05</internalNodes>
          <leafValues>
            -1. -1.1452206472365150e-14</leafValues></_>
        <_>
          <internalNodes>
            0 -1 4 -4.9405240133637562e-05</internalNodes>
          <leafValues>
            1. -9.6695909065176375e-15</leafValues></_>
        <_>
          <internalNodes>
            0 -1 4 -6.4643812947906554e-05</internalNodes>
          <leafValues>
            -1. 5.7958038833462368e-15</leafValues></_>
        <_>
          <internalNodes>
            0 -1 4 -4.9405240133637562e-05</internalNodes>
          <leafValues>
            1. -6.9933788747228876e-15</leafValues></_>
        <_>
          <internalNodes>
            0 -1 4 -6.4643812947906554e-05</internalNodes>
          <leafValues>
            -1. 1.8870899648145735e-14</leafValues></_>
        <_>
          <internalNodes>
            0 -1 4 -4.9405240133637562e-05</internalNodes>
          <leafValues>
            1. -9.6793504201359015e-15</leafValues></_>
        <_>
          <internalNodes>
            0 -1 4 -6.4643812947906554e-05</internalNodes>
          <leafValues>
            -1. 5.4016508656268411e-16</leafValues></_>
        <_>
          <internalNodes>
            0 -1 4 -4.9405240133637562e-05</internalNodes>
          <leafValues>
            1. -7.8194922257623749e-15</leafValues></_>
        <_>
          <internalNodes>
            0 -1 4 -6.4643812947906554e-05</internalNodes>
          <leafValues>
            -1. 4.2230672529001382e-16</leafValues></_>
        <_>
          <internalNodes>
            0 -1 4 -4.9405240133637562e-05</internalNodes>
          <leafValues>
            1. 2.5624030756390623e-14</leafValues></_>
        <_>
          <internalNodes>
            0 -1 4 -6.4643812947906554e-05</internalNodes>
          <leafValues>
            -1. -1.0954101124435733e-14</leafValues></_>
        <_>
          <internalNodes>
            0 -1 4 -4.9405240133637562e-05</internalNodes>
          <leafValues>
            1. -3.2135917563895066e-15</leafValues></_>
        <_>
          <internalNodes>
            0 -1 4 -6.4643812947906554e-05</internalNodes>
          <leafValues>
            -1. -4.4164962790702814e-15</leafValues></_>
        <_>
          <internalNodes>
            0 -1 4 -4.9405240133637562e-05</internalNodes>
          <leafValues>
            1. 1.9123300219834466e-14</leafValues></_>
        <_>
          <internalNodes>
            0 -1 4 -6.4643812947906554e-05</internalNodes>
          <leafValues>
            -1. -2.7278735029840316e-14</leafValues></_>
        <_>
          <internalNodes>
            0 -1 4 -4.9405240133637562e-05</internalNodes>
          <leafValues>
            1. 1.9517068896354045e-14</leafValues></_>
        <_>
          <internalNodes>
            0 -1 4 -6.4643812947906554e-05</internalNodes>
          <leafValues>
            -1. -7.1199429612180988e-15</leafValues></_>
        <_>
          <internalNodes>
            0 -1 4 -4.9405240133637562e-05</internalNodes>
          <leafValues>
            1. 7.2578280665698373e-15</leafValues></_>
        <_>
          <internalNodes>
            0 -1 4 -6.4643812947906554e-05</internalNodes>
          <leafValues>
            -1. -5.1185171857546456e-15</leafValues></_>
        <_>
          <internalNodes>
            0 -1 4 -4.9405240133637562e-05</internalNodes>
          <leafValues>
            1. 1.0485362408787623e-14</leafValues></_>
        <_>
          <internalNodes>
            0 -1 4 -6.4643812947906554e-05</internalNodes>
          <leafValues>
            -1. -5.9315574302862099e-15</leafValues></_>
        <_>
          <internalNodes>
            0 -1 4 -4.9405240133637562e-05</internalNodes>
          <leafValues>
            1. 2.7521999927676436e-15</leafValues></_>
        <_>
          <internalNodes>
            0 -1 4 -6.4643812947906554e-05</internalNodes>
          <leafValues>
            -1. -2.5569790154580246e-15</leafValues></_>
        <_>
          <internalNodes>
            0 -1 4 -4.9405240133637562e-05</internalNodes>
          <leafValues>
            1. 4.0010134894313647e-15</leafValues></_>
        <_>
          <internalNodes>
            0 -1 4 -6.4643812947906554e-05</internalNodes>
          <leafValues>
            -1. -2.1875602068314017e-15</leafValues></_>
        <_>
          <internalNodes>
            0 -1 4 -4.9405240133637562e-05</internalNodes>
          <leafValues>
            1. 1.9195801581438224e-15</leafValues></_>
        <_>
          <internalNodes>
            0 -1 4 -6.4643812947906554e-05</internalNodes>
          <leafValues>
            -1. -2.0024519558790518e-15</leafValues></_>
        <_>
          <internalNodes>
